V1,V2,V3,V4,V5,V6,V7,V8,V9,V10,V11,V12,V13,V14,V15,V16,V17,V18,V19,V20,V21,V22,V23,V24,V25,V26,V27,V28,V29,V30,V31,V32,location,population,habitat,sex,cluster_inv1,cluster_inv3,batch,weight
PP1001,0.21482406929324,0.120854177992608,-0.0631526652093005,0.0275699689326778,-0.00431844919129967,0.00550748608663531,0.00742105823143224,-0.00160390555229313,-2.20743684853468e-05,-0.000125401772060425,4.35895336429841e-05,0.00149261815268866,0.0041825010211109,0.00107308343700918,-0.00118575143621598,0.00346656643685202,-0.00391573082262468,-0.00187198798484437,-0.00282107030296225,0.00301323052780419,0.00335947294367858,-0.00520895062537067,-0.00389797643819316,0.00577166374897887,-0.000374734608040654,-0.00673270291273127,0.00617149256619771,-0.000537741458052016,-0.00469864099563141,-0.000159192860090066,0.000909436475868091,-0.00428850170909489,puebla,sevilla,urbano,female,1,no,NA,no
PP1004,0.225566926390135,0.152635979799104,-0.09866716638192,0.0370935401648066,-0.00279095497540198,0.0124138244351501,0.0109372043460121,-0.00442189589594609,-0.00409541378900308,0.000592059389692982,-0.0116481912194379,0.00723453059062857,0.0198601209175237,0.00631740976196196,-0.00436655402921528,-0.00688226135391685,0.00337471947371162,0.00537658748821029,-0.00646256188587596,0.00487081265725648,0.00491538837127862,-0.0063166283904188,0.00152412587334159,0.00267468390511429,-0.0028805630307391,-0.00627251835818715,0.00356182452000627,0.00164049090335196,-0.00404261798221131,-0.00511262673563699,0.0065691318272046,-0.00547300113090865,puebla,sevilla,,female,NA,,4,
PP1014,0.220461284124713,0.14736955578704,-0.0952017465512861,0.0352831647302397,-0.000370164484815399,0.0108042092921166,0.0113957730460833,-0.00320226451658806,-0.0012652114190049,-0.00108897256229932,-0.00759433333505648,0.00486287395963429,0.0151422871644267,0.00586606147372275,-0.00162662648519804,-0.00895531230291503,0.00306449392961851,0.00390395536624941,-0.00595128164308627,0.00614693217850614,0.00768528014218301,-0.00376469508390181,0.00122340775286142,0.00651941048921587,-0.00508603645296303,-0.00829422282040292,0.00414210393728868,0.00353371057712103,-0.00508829263485151,-0.00415081397623278,0.00943856706455604,-0.00297600385537223,puebla,sevilla,,female,NA,,4,
PP1015,0.217160750230802,0.142023048196337,-0.0903470014022114,0.0352772865557899,-0.00443874270427029,0.0101235501737831,0.010491549818999,-0.00519865901205291,-0.00338467967622716,0.000294697236830737,-0.00608879888973901,0.00566333048171211,0.0141084469664622,0.0027479696804998,-0.00508962521104056,-0.00951092290866197,0.00292083763042524,0.00325492560544616,-0.00543092341335438,0.00452624049164527,0.00536062042886511,-0.00331101016035141,0.00404068704533207,0.0122373268803279,-0.000932358768934514,-0.00771960267103877,0.0077317962633024,0.000642768636173414,-0.00557264813908497,-0.00506746062483762,0.00848272120938277,0.000156214636831061,puebla,sevilla,,female,NA,,4,
PP1016,0.236909639133882,0.167728792487209,-0.113020106373051,0.0470904422433955,-0.00127202524717253,0.0165693727317011,0.0138583292852021,-0.0038777828291148,-0.00729545286379342,-5.75736777469419e-05,-0.00868255242665635,0.00568343931141343,0.021049852301969,0.00299635377469212,-0.00878112480410206,-0.00801830024088081,0.00184545247850765,0.000619165742493218,-0.001906816310547,0.00478406870867325,-0.00120382600007028,-0.00819316788926642,-0.000672878148009592,0.00722239699769551,0.00383975150872432,-0.00327482207534108,0.00465486729732083,0.00220093832213538,-0.00274847071521526,-0.000822353637851376,0.0061912864348387,-0.00225943077280864,puebla,sevilla,,female,NA,,4,
PP1027,-0.0293642043670377,0.0248592027374804,0.0233868190274375,0.0276116852582003,0.00420850792247912,-0.0033197910289993,0.0525419621819506,-0.014172157877228,-0.0129643921831359,-0.0119201633768308,0.00653657269814744,0.00458691751588522,0.00340711754036736,-0.0300608685626601,-0.00372773389145777,-0.0258460180725744,0.000891971666429302,-0.00870553027822888,-0.0111022236044458,-0.0213854145009151,-0.0331467490525634,0.0184369773394828,-0.014529766289994,-0.0317998504520996,0.00643662526514191,-0.00377192391791676,0.00645733807909702,0.0183128887984,0.012750025485044,-0.00577981300077918,-0.0153407799555707,0.00035767363037139,canada,sevilla,,female,1,2,NA,1
PP1028,-0.0227011657181556,-0.0341130734672962,0.0245721398626026,0.0822942975175077,0.0728811690765964,0.0313898419126644,-0.0148004740544396,-0.00409212142112053,0.0141413822486093,-0.0157596608964823,0.040975870872938,-0.00462097089958623,0.0120911098087841,-0.0750593581897932,-0.0647663679602069,0.0429985888656999,-0.0378562404133402,-0.0760744028123793,0.054420213371229,0.0177803075763657,-0.0671035637969434,-0.08051676373858,-0.0713491537070057,-0.0201676905084213,0.0755727955406952,0.0770975997668662,-0.0703550942690556,0.00937485479560898,0.080385153480807,-0.134662630531881,0.0236733929092722,-0.0518314082787602,canada,sevilla,,female,NA,,4,
PP1031,-0.0339679301806008,0.00595536884933668,0.00500935887587323,0.0110997061102685,0.00722644950806403,-0.00536511856623715,0.0138285554766545,-0.00570553435406009,0.00164736673866104,-0.00512105934783255,0.00745545159672215,0.00200837638117064,0.000587426266413278,-0.00591740230622531,-0.00681026623505575,-0.0102269170809529,0.00494911510925944,-0.00357998698273157,-0.00352766514216191,0.00529391555966546,-0.0067798023820154,0.00370731886230631,0.00294444084249822,-0.00373687825242462,0.00750028939371485,-0.00361393935710211,0.00940060433508857,0.00332468102689159,-0.00116007172030811,-0.00303224018878276,0.00950529876970441,-0.00262764602599844,granjaescuela,huelva,urbano,female,2,2,1,1
PP1032,-0.0382979981734464,0.0102586975963454,0.0278247971856643,0.023020867105113,0.00953973240408609,0.0558048697404848,0.0766055759565857,0.0029438930697133,-0.0119708327046734,-0.0183350812274517,-0.00148873035448375,0.0105298383954296,-0.00820501795631593,-0.0117932309564553,-0.0107773882755434,-0.0427796241779614,0.0105850085585597,-0.0198185298925358,-0.00194081441003152,0.00274155327176715,0.0037276869474239,0.0217623188447515,0.00898238657619068,-0.0118414935618368,0.016067096744278,-0.0191006451578639,0.0171647420711391,0.00791038377408511,-0.00200221633955806,-0.00933594558216581,0.0364948316420815,0.00165927296069958,granjaescuela,huelva,urbano,female,1,2,1,1
PP1033,-0.0368186349627329,-0.0367606275800922,-0.0897823985810433,-0.0433852167169888,-0.0804195348313435,-0.0468521518105584,0.0670563516592258,-0.0404798854982994,0.101499801128485,0.043691142695684,0.0282011192800348,0.0383567117590885,0.0248440866875076,0.106811068343374,0.0182768473877135,0.0705631049444229,-0.0597530476040597,0.0580680205706602,0.0125001866814935,0.120042793312128,-0.0357565993053789,-0.0844068498822894,-0.0435430975112458,-0.0500556065359915,-0.0771388743864176,-0.090719611611556,0.0758199127866367,-0.0209761794580329,-0.161216467666999,0.0245948989353958,-0.0183097577255893,-0.0736510216309188,granjaescuela,huelva,urbano,female,NA,,4,
PP1034,-0.0340743406191457,-0.0893225578028875,-0.143500129243045,-0.0827617026253318,-0.083383451967999,0.0202507595087138,0.0481029581481213,-0.0155925002338708,0.0916579970643992,0.0225317433092842,-0.00765195661206283,0.0356339610565399,0.0111931527052997,0.115035912112527,-0.0257409120021341,0.0364391206151628,-0.0452447632243424,0.0237487633134348,0.020293800732893,0.0474984611597448,-0.0266130173291095,-0.0204915940430317,0.00582229540729346,0.000116553459211839,-0.0596773162901331,0.0375942022619258,0.0183297294641651,-0.0398509515551138,-0.162552310200419,0.0229071161336343,-0.0119110214393241,0.00741284576765278,granjaescuela,huelva,urbano,female,NA,,4,
PP1035,-0.0808700638091365,0.0839721638156103,0.0180208244976351,-0.0148535995329721,-0.102570532417176,-0.231592445661698,0.604309401874897,-0.214628855012087,0.147295897755561,0.13674926163189,0.113676379197503,0.316677186052586,-0.00965491349510404,0.17123832615622,0.0468811057492953,0.224372485176244,-0.116487752318388,0.0355328355555314,-0.0454639657218673,-0.0218142062137491,0.185962749219363,0.1350886378479,0.201770491931365,0.0692959341489021,0.0341771575240552,0.0899162912556594,-0.0296919712362863,0.0084429890678403,0.218520322473629,-0.0417184273527217,-0.0727386507411376,-0.0574251508351308,granjaescuela,huelva,urbano,female,NA,,4,
PP1036,-0.0321151796924068,-0.0257048209022684,0.00473498000528565,0.0460231416602972,0.0254518449731033,-0.0772689072095263,0.0581094142690961,-0.0504634260102514,0.141654639553483,0.0520326841807154,0.0500352433136872,0.0401515788240304,0.0520020697046561,0.208767682861593,-0.0641693787041598,0.138396320029954,-0.185509559012652,0.0336909030744699,0.154874990658747,0.196124771799085,-0.156010926619382,-0.200961300528605,-0.132694350240596,0.0496786695870955,-0.0695806012928445,-0.132721969831802,0.13510719474388,-0.0844959610258702,-0.547216348387178,0.0297033250379094,0.051477725674266,0.155027355111884,granjaescuela,huelva,urbano,female,NA,,4,
PP1040,-0.0298627626056762,-0.00493646805126107,0.0258233243732407,0.0297770649559697,0.111388607661762,-0.0831966521470906,-0.102617306099722,-0.0194798800254215,0.146234710812692,-0.00346260013676787,0.189621171122937,-0.017821289842857,0.124572464759687,0.156640744138904,-0.161921108643866,-0.0767824214204351,0.396843315699149,0.273503389707585,-0.232097695623901,0.218719975888147,0.302234889045569,0.0662573541249312,-0.0821796624140606,0.142036940416141,0.11770412792849,0.381053817066017,-0.00669293513431445,-0.160710189851378,-0.0141666178268013,0.219840035195439,0.18635896318028,0.118395687478508,edarmo,huelva,urbano,female,NA,,4,
PP1041,-0.0264348152214575,-0.0466884362172169,0.0204103102682974,0.09486353653321,0.0864573567942384,0.109142147275878,-0.0144727880507791,-0.00135393612994231,0.0838628095809728,0.0188434942422947,-0.0255259037601366,0.00840159920127877,0.0897416324880258,0.0247437268049564,-0.0427583291702786,-0.240568535283956,-0.254037264908019,0.126700645280452,-0.00603316887685338,0.18373953309841,0.127662619497054,-0.185203219728613,-0.0317240664463212,0.090104847054817,0.154450851025351,-0.106510749576877,-0.191192181991493,0.203043259280499,0.0923476390893149,0.0594729989323474,-0.178869980976842,-0.116331793440585,edarmo,huelva,urbano,female,NA,,4,
PP1054,-0.0132234894033136,-0.0140631579098198,4.72347655991773e-05,0.0061736210922194,0.00537942219541919,0.0153745974535158,0.00531738747816097,0.00275623347929135,0.00394961606187852,0.000112082346542443,0.000584465497559353,-0.000192214317430286,0.00214552848722712,0.00313837655299846,-0.00210993036677814,-0.00242720121598719,0.00518243713357844,-0.00202826189853659,-0.00085328721122213,-0.00431724292750519,-0.00117634025287585,0.00304809478878721,0.00125127276996335,0.00329493368422008,-0.0042407330925043,0.00150681847987671,0.000819557984629452,-0.000216666170664313,-0.00390394170670671,-0.00341067248813308,0.000624471400976343,0.00103918587114755,edarmo,huelva,urbano,female,2,2,NA,1
PP1055,-0.0295864834292296,-0.0215406209405806,-0.0389376048589832,-0.0131692432108628,-0.0146416844020346,0.0475343680926344,0.0313025755555414,0.0114784997145357,0.00518704258839037,-0.00160362760818467,0.00290075199573653,0.00293660637109691,-0.000717797341348342,-0.000174388378826457,0.00112670834267303,-0.0272679228430417,0.0139590559978509,-0.00454273501885849,-0.0043129016203251,-0.00406034981489068,0.00861394478323469,0.00670448442555058,-0.00540833314087683,0.00342445763659698,-0.0167670470161213,0.00232198203257097,-0.00386789718181016,0.000578455861106674,-0.00974376220193073,0.00230960459683377,0.00211252527553928,0.00648341341831804,edarmo,huelva,urbano,female,1,1,NA,1
PP1058,-0.0235457018563985,-0.0350297895190311,0.00795370908275704,0.0403917973374057,0.0399157104957158,0.0699222389451804,0.00598792217741475,0.00278955468622699,0.0339095818512972,-0.00184355019959539,-0.0135593251594396,0.00483306874945429,0.0386319966480211,0.0235070507072532,-0.00637775254859301,-0.0972423603918927,-0.11556656125154,0.0188855111678469,-0.0143372182983203,0.0847403359454497,0.0276755871156284,-0.0509051764926263,0.00041926029787258,0.0637088585720816,0.0170527318074018,0.000633870026266269,-0.0236013846584619,0.00318156307554683,0.0449383936379199,-0.0531443503082613,-0.00188223822283,-0.00213365966969189,edarmo,huelva,urbano,female,NA,,4,
PP1059,-0.0248262109525413,-0.0741544621549352,-0.0717441323812192,-0.00502046722929736,-0.00545258045843516,0.100073208700543,-0.0230777652937318,0.00233483120342076,0.0561575430273311,0.0163280041118704,-0.0266035338827019,-0.000460924336939481,0.0542232882090787,0.00711554025936215,-0.0350684769158558,-0.113590066534798,-0.126386056979497,0.0608696643683228,-0.0259071901245229,0.0596046197173278,0.0395123318436413,-0.0572376150015603,-0.0182535541263474,0.0529991267391707,0.0557766628859178,0.0169316549567609,-0.0367726901023401,0.0213944202891497,0.0404461178633492,-0.00827674788678196,0.0313989819655036,0.00157201291561257,edarmo,huelva,urbano,female,NA,,4,
PP1075,0.225830358501364,0.153665864664744,-0.099312869586508,0.0419400942035026,-0.00345528852719064,0.0118972313104304,0.0125903872062062,-0.00143047202698184,-0.00401586469751125,-0.000298760674796872,-0.00843337157860205,0.00425720993710913,0.0154657851275728,0.00325137144079503,-0.00472704542423505,-0.00954016079244319,0.0040392538479366,0.00424309434758403,-0.00399854943663797,0.00522707072648654,0.00309540165155633,-0.00932604002088816,-0.0017044869683838,0.0079006657197425,-0.000353315734317371,-0.0136837422027261,0.00497908079414677,0.00383451020582669,-0.000432230056090985,-0.00676466528451384,0.00523280175702682,-0.0104356539066856,puebla,sevilla,,female,NA,,4,
PP1076,0.216524478245147,0.144605014111727,-0.0964223582535497,0.0372836668511504,-0.00282143385293217,0.011440858899984,0.0109327879897439,-0.0019632673448171,-0.00158190033757987,-0.000610454594013633,-0.010874401918101,0.00731844580663508,0.0132682178212545,0.0039407223734213,-0.00536205606179573,-0.0127456722781057,0.00210142174667026,0.0021608827518705,-0.0040852072278202,0.00659008202214383,0.00685965440549677,-0.00568923788636957,0.00278424617043638,0.0025599582489239,0.00268548699168444,-0.00742458997813719,0.00660496830025047,0.00427065411001729,-0.00507654437904298,-0.00617251135514774,0.00733867113544271,-0.00837627146690163,puebla,sevilla,,female,NA,,4,
PP1077,0.228558499710733,0.151440973782686,-0.0988811564791608,0.0385867236798208,-0.000199553861603034,0.00957741468714986,0.0142517297136853,-0.00511072788760712,-0.00424604124811931,-0.000462190740371574,-0.00544612546273897,0.0058861520952963,0.0186712375622857,0.00953859596089891,-0.00185488390087797,-0.00679578251171675,0.00164697197070385,-0.00144551314261248,-0.00401025634835642,0.00385045202019752,0.00611729385416781,-0.00279334791004002,0.000193072489801663,0.00517067394270038,-0.00144669593074857,-0.00680452603163876,0.00604938554196347,0.00376652779816988,-0.0098258607423447,-0.00474866418721447,0.00612088403391481,8.1441461631953e-05,puebla,sevilla,,female,NA,,4,
PP1090,-0.0131050430822345,-0.028643372998164,0.0112910618755461,0.0520571778599213,0.0581095270689714,0.0159381571560174,-0.0162126650964616,0.00389094835082945,0.0133263503155973,-0.00980324887181134,0.0344057716774355,0.00204386593766907,-0.0227545993780652,-0.0314475449608999,0.0175050598094197,0.00480141915066557,0.000248277961953845,-0.0177444969102181,-0.0116118832896341,-0.030874819423749,-0.0134528954942584,0.0139017709392761,0.00340432004495573,0.0190209459919672,0.0299613735023823,0.0233045921716362,-0.031892637980765,-0.0109026647028229,0.0244632075546318,-0.0117417289451072,-0.00622377736393862,0.065293900488419,palomares,sevilla,urbano,female,2,2,NA,1
PP1091,-0.0349878212527224,-0.0132960473403347,-0.00333468749367303,0.0402861824897895,0.0513896279634632,-0.0268396832369434,-0.00340215076121383,-0.0239409181427688,0.0125820827415341,-0.00664097393352698,-0.0365636010613387,0.000967498682769855,0.0131892479354106,-0.0306095252332615,-0.00261364895853248,-0.0144849867203518,-0.0257169138934315,-0.000975250319600812,-0.00383971106811548,0.00265794337537097,-0.00815815353910063,-0.00604338268661355,0.0160522373500305,-0.00685410066516117,0.0281758830472865,0.0142351533017078,-0.0081964822733528,-0.0160046205934001,0.0295117298434947,0.00776519086540551,0.0209248700525859,0.0365771091803692,palomares,sevilla,urbano,female,2,2,NA,1
PP1092,-0.00893214543782932,-0.0380808123597842,-0.0477013546080267,-0.00449824588168991,-0.0276927675852366,0.0300675535821894,-0.0119523949633484,0.0199924679243573,0.0102526560081587,-0.00754029051642364,-0.00587867988471217,-0.00678780621190201,-0.0216224414960985,-0.00820181243192045,-0.000923828490454011,0.0112439086006798,-0.00821107932131368,-0.00752093331865341,-0.00228825207617106,-0.00483177342502729,0.0100545943330934,-0.00341312920357462,-0.00736923777262647,-0.00804933407934266,0.00312154199376386,0.0268368457775333,-0.0196902211433977,-0.02151012033263,0.0164365630107976,0.00769035270895558,-0.0183070166420483,0.0181609622780782,palomares,sevilla,urbano,female,2,1,NA,1
PP1093,-0.0132542334917386,-0.0084157428387603,-0.0508041264291926,-0.0500887567310788,-0.0360117524709713,-0.0272841337671038,0.0335782006260197,-0.0121654616483119,0.00544073724518796,-0.000453671343593326,-0.0149839872862798,0.00902623098438111,-0.0121679930683914,-0.0368802884625425,0.0131128022747403,-0.0289535184652333,0.014842832892965,-0.0237205063189394,-0.00717827118432014,-0.0377181274052394,0.00130262112725962,0.00404485401813571,-0.0224940345654268,-0.0493713493132647,0.0259828063677812,0.031858528786105,-0.0197994026455442,-0.00261934797349624,0.022283955828911,-0.00544267325372049,0.0232521870354605,0.0388673248792142,palomares,sevilla,urbano,female,1,1,NA,1
PP1094,-0.0246405969411106,-0.00506863202157513,-3.97612378669551e-05,0.00827235103311883,0.012576013050445,-0.0085627228755096,-0.00468159748235763,-0.00388309486639886,0.00450925257682049,-0.000822289181764843,0.0006854895127546,1.54117043701787e-05,-0.000486458184397648,-0.00225603184109727,-0.00140683798900671,-0.00010605785125887,-0.00301494808167259,0.00146495184289654,-0.00309652653517921,-0.000747402365113318,-0.00234998786357215,-0.00177916626456651,0.00102971512392413,-0.00075270376771793,0.00202049932844101,-0.00102629455999263,-0.00151462957345102,0.00114606828287355,0.00501784628448712,0.000160048939381194,0.0022677745366956,0.00170397776348316,palomares,sevilla,urbano,female,2,2,NA,1
PP1095,-0.0231225674306429,-0.017476731538757,-0.00325447098055339,0.035158752855873,0.029939340529411,0.0143002846698572,-0.00695127702595921,0.0026338084912848,0.00544134706936874,-0.00467398320947422,0.0197681678882026,0.00243590874117222,0.00383442107535132,-0.0126966351039222,-0.00569435595713418,-0.0020028042706428,-0.00884949738915912,-0.00399250711381845,-0.00414611208677717,-0.001242398325259,0.00217649182988522,-0.000972643699230997,0.00460475233622533,-0.00917991980931899,0.0112897881359087,0.0114819389613112,-0.0107222346511154,-0.00707397849287304,0.0169087540009079,-0.00821245651489279,0.00521844909641685,0.00942394362165892,palomares,sevilla,urbano,female,2,2,NA,1
PP1120,-0.0353445755436062,0.00682789135952067,-6.33842749948949e-05,0.00553185684183624,-0.00330483695161731,-0.00221774931041621,0.0102678734943902,-0.000471135053526294,1.19988202691474e-05,0.00146547850796302,0.00186877587830249,0.0014568158000521,0.000581030149048291,0.000685006809322776,-0.0037821055989627,-0.0033494191792283,-0.00200134793850555,-0.00173383743376606,0.000713611491298531,-0.00324514380875558,-0.00228540145457995,0.00123305324266488,-0.00583459450327253,-0.00244508076124812,-0.0022259786218288,0.00339949372320814,-0.00181048680805221,-0.000941087245623989,0.00161808881664344,-0.00216561036559069,0.00290936707284326,0.00454663377662827,dehesa,sevilla,,female,1,2,NA,1
PP1122,-0.061935990873122,0.0143988388878036,-0.118359386051748,-0.0821560724436361,-0.0957977324173144,-0.262578920082381,0.0727082758916902,-0.0948787013115998,0.0520589256884842,-0.053736084116921,0.140517913702707,-0.0878049761790101,-0.0323937952240569,-0.563716285464655,-0.356406516051449,-0.226759339282406,0.110638429452385,-0.194598067940622,0.17391003970034,0.170795531483989,0.21992768367849,0.00852994653886851,0.15042578322575,0.113519940082204,-0.195362323512842,-0.130503970776151,0.0492776668059964,0.0242684472796605,-0.115382122446098,0.0412256264387896,-0.0841858714469038,0.0154477847438836,dehesa,sevilla,,female,1,,NA,
PP1132,0.00227815566014491,-0.0105520553356633,-0.0481642482837293,0.015453429257797,-0.0462861828469883,0.0475408084256648,0.0356789937764242,0.0169102319598854,-0.0176437264937673,0.002315662208416,0.0113804385471201,0.0109985121600097,-0.027108616164894,-0.0143492442216758,-0.017602636648433,0.0384813165463101,0.029362714049539,-0.0442034105937544,0.0269673693485121,-0.014541177834439,-0.0188629636150941,-0.00488746746259106,-0.0561331805394292,-0.076715405885651,0.0458253312340007,0.0522200308921839,-0.0652314707526778,0.021851218714034,0.0243175748309151,-0.0236041050860602,-0.0296311318605415,-0.0494304858643482,canada,sevilla,,female,NA,,4,
PP1146,-0.0162084766027091,-0.0067704848788467,0.00270269843591319,0.00279667481402026,0.00448380054284992,-0.00763327572404504,-0.000980795762783353,-0.00343829332208818,0.00513416493981264,0.00246911039730095,0.000978329835468573,0.00237397462431471,0.00358272922485693,0.00213174593194333,-0.00240714426576345,0.00209062835050649,-0.00233225071332648,0.00401328925045561,-0.000543518835288787,0.00235289294712608,-0.00176135063457552,-0.00175653530326507,0.000659620552176599,0.000973799953831492,-6.36875684628129e-05,0.00094943552799733,0.000102718096387481,0.000601499769278439,-0.00326514190597565,-0.000416295827196668,-0.00294831620909068,-0.00212887779134509,cmutis,huelva,urbano,female,2,2,NA,1
PP1147,-0.0212784471353617,-0.0165648180363308,0.0179618595893684,0.0481191852491512,0.0379282298881645,-0.0934611339481827,-0.0194165531608248,-0.0174808741226209,0.0333658676121768,0.00835992611482006,0.0546307911789092,-0.00175529664005615,0.0136513590392647,-0.00433336662491646,-0.095166351471957,0.0830457297121967,-0.00652504268789993,-0.0576292103546006,0.0389669699588238,-0.0262831012727467,-0.104452073348997,-0.0612969333973359,-0.105500507688435,-0.0806611366754133,0.0775989170840875,0.0661730941622957,-0.0435706652375514,0.0346242203786177,0.0572704692894606,-0.0707545974473986,0.0454591254370061,-0.0814136781601915,canada,sevilla,,female,NA,,4,
PP1148,-0.0450468237545512,0.0107129551493271,-0.000570495328554096,0.0667655113587389,0.050669461138775,-0.20623781749308,-0.0591932624789619,-0.047203921989043,0.023983848810826,-0.00580334347728077,0.0850386642465879,0.0047193300099381,0.0307964991857834,-0.0394272705781609,-0.165068333910822,0.0843997744061846,0.078355680248996,0.029695819147497,-0.0245102426571778,-0.0652726326420396,-0.126269400744261,-0.15010662903961,-0.176431578096405,-0.0963295053718131,0.229060999040726,0.124140038189853,-0.207746475536988,0.218885269832012,0.00197999229078325,-0.334060891121724,-0.0071535278680601,-0.251091197387535,canada,sevilla,,female,NA,,4,
PP1149,0.00304229369458482,-0.00507618766002966,0.00838969989009697,0.00950550741256602,-0.00643050957450069,0.00716643511344322,0.0144666230275448,0.000379724894260051,-0.000956354592220146,0.00112303042461599,0.00094602134298062,0.00341624688189572,-0.00211995383699661,-0.00189503098778113,-0.00383431335297963,-0.00156700437567252,-0.00244201667063722,0.00345904886976175,0.00128448283196729,0.00172237379772563,-0.00556362145639658,-0.00173598321939128,-0.00261914338629363,-0.00653576302091823,-0.0026908764690831,-0.000849191040287507,-0.00370124127815489,0.000116348721218899,0.00261779926527344,0.00299244550638944,0.00138057325531428,0.00481500862131127,colinaspinar,sevilla,urbano,female,1,2,NA,1
PP1151,-0.0181917648070876,-0.0111178395860331,-0.0143482318042675,-0.00567057679042289,-0.003315463098686,-0.0034628517298564,-0.00625096559174192,-0.000412998208200753,0.00844472633707113,-0.000136966950657043,0.001777057151961,-0.00198998303839436,-0.000768525469526469,-4.36621811863773e-05,0.00111204709255585,0.00101383405176006,-0.000536083266952485,0.00368737774245566,-0.0028944190846242,0.00384185001043733,-0.00146133649406457,-0.00254474408970745,-0.00246261661938156,-0.000777726695234801,-0.00224189377819333,-0.00130240763286659,-0.00119553564441146,-0.00111155902745513,0.00059849253271633,0.00212592947761526,-0.000140203996176637,-0.000598340104291814,colinaspinar,sevilla,urbano,female,2,1,NA,1
PP1152,-0.0134435438226446,-0.00998654595988661,0.00345862703001236,0.0162036137845178,0.0071565397636378,0.00651801764054222,-0.00166660955100568,0.00170731347877707,0.000504892153145475,-0.000753155018442999,0.00185683688256987,0.00138914490393717,0.00361971325253649,0.000610551662348539,-0.00308254203583841,0.000620618661916831,0.00148565680846801,0.00260374636001627,-8.68947409037085e-05,-0.00109285022294634,-0.00568392849851659,6.92754246438415e-05,0.00220224159202648,-0.0015365940031453,-0.00123604470332693,0.00270765057598876,-0.000765988296510261,0.00185376279071433,-0.000251596291011209,0.00111769574559956,0.000584326328658268,-0.00178209574381461,colinaspinar,sevilla,urbano,female,2,2,NA,1
PP1156,-0.14737284349432,0.27665449755304,0.0827070106309862,-0.147394004064843,-0.0540060105672533,0.27537285161316,-0.213501483157773,-0.744142401712358,-0.189558393401793,0.170309241349048,0.0555668587600588,-0.100023874586084,-0.207227002494231,0.0910561444964892,-0.130181229758697,0.0241145833541589,-0.00589885936658369,-0.00202875437239413,-0.0232103387677031,-0.0250188355149778,0.0270119588030167,-0.0691936978511214,-0.0101756982903051,-0.0149041295992374,0.0151996064594233,-0.0300760315273537,-0.0183643342774655,-0.0197086966390808,0.0025455643279119,0.0361269799278112,-0.000875305622513221,0.00239102931029566,colinaspinar,sevilla,urbano,female,NA,,4,
PP1157,-0.0542627448432445,-0.0108302598169036,-0.00953335865339576,0.0896314928512499,0.105011517246272,0.0138183749461908,-0.0385723644054725,-0.232754665183731,0.103405626448408,0.122165492186055,0.0177348209312942,0.0158017929731076,0.586633621692522,-0.25355804415499,0.499095643316075,0.0759676255555308,0.217331129294088,0.059163602529516,0.124853638167032,0.00474007340094542,-0.0270230629695872,0.0442457379048662,-0.029372802444401,0.0403526604087354,-0.0671556888333901,-0.176898013167497,-0.00802899628343895,0.0408156615980617,0.0359326076695802,-0.00759911702626166,0.0346843707436478,-0.0056670863927659,colinaspinar,sevilla,urbano,female,NA,,4,
PP1158,-0.0277044504705072,-0.0106041895712464,0.00172036667523914,0.0260687099448047,0.0163601221710274,-0.0102857469822204,-0.00345916293991764,-0.000788542682477607,0.0186861495731223,0.00519530675758828,0.00736440843122004,0.00129611018585261,0.00703252483506778,0.00106199322444535,-0.00105914379898977,-0.00127782332924475,-0.00345172127490233,0.0129726444364788,-0.0088675651868798,0.0153698613542909,-0.0181394198097381,-0.00962387471714746,-0.00729744755813826,-0.00987103716372244,-0.0085331314020033,-0.0127834793576822,-0.0114535999627246,0.010579125114804,0.000148747925214955,0.0024823005292284,0.017940983438881,-0.00169571817144928,colinaspinar,sevilla,urbano,female,2,2,NA,1
PP1159,-0.0475716077074534,-0.025017631412459,-0.0719996365354055,-0.00512093286567843,-0.043218603262664,0.138005455371208,0.0159535018924764,-0.0609729518653984,-0.0545789231429635,0.0242544090493312,-0.0231573559430543,0.00900120780796376,0.0350319763535889,-0.04454007204574,0.0750237588325302,0.0198111057813456,0.0289284192540407,-0.0138967248845888,0.0444281800559032,-0.0560958858206931,0.00626022310878999,0.0398122977281064,0.0333351651413988,0.0137187963229604,-0.0495622103317667,0.0894948370402066,-0.0413276449463254,-0.0657212648950681,-0.00119253076146337,-0.087657430655431,-0.0348402568292402,0.0438910361154341,colinaspinar,sevilla,urbano,female,NA,,4,
PP1160,-0.0402543852401222,-0.0535213223480657,-0.0960883472441103,-0.0216749814590677,0.00150689265816907,0.126864399782093,-0.0681708402526125,-0.0585329506860341,0.0059140098657425,0.0259137230003453,-0.0225754456575314,-0.0139828343772184,0.0684010627393905,-0.0425554621918686,0.0504494606772983,0.0695493557714667,0.020899749430912,-0.0507374320847161,0.0247672371075605,-0.0531754594461858,0.0630047609836575,0.020459722243832,0.0712506407892742,0.0191581160541382,0.00330798098151718,0.0824935500254951,-0.00859424830823478,-0.0439931313864986,-0.0461925148523193,-0.105820147380331,0.0392461896327101,0.0170010538655229,colinaspinar,sevilla,urbano,female,NA,,4,
PP1161,-0.0384170178431915,-0.0287633701951731,-0.0150201350377844,0.0682469003450033,0.0565604345440461,0.0880791665216893,-0.00736967973510975,-0.0924777116710553,-0.0520230120424067,0.0348797807904372,-0.0917008243658903,0.000975049164644311,0.0833526813323404,-0.0232128632067239,0.062514171364425,0.0390709097368099,0.00945225038373279,-0.0311031632177754,0.0860064682407652,-0.0258962954582078,-0.00748276593924919,0.0447402067711737,0.051569943480125,0.0728847669512222,-0.011589214582971,0.101949596682119,-0.0430667265159246,-0.0192858670099555,-0.0802333810174802,-0.0880152352826823,-0.0524563633750217,0.0734580679181778,colinaspinar,sevilla,urbano,female,NA,,4,
PP1162,-0.0286924090604329,-0.0450905562337613,-0.0763967198665029,-0.0435953529065075,0.002904367887382,0.10913707981951,-0.0455282474366956,-0.063139190349028,-0.0304975030031049,0.01783334017395,-0.017928264521226,-0.0206368869754138,0.0741311564185417,-0.0242640147496581,0.0535525356559738,0.0598784369310762,0.0112942902748843,-0.025469410480728,0.0560631378537326,-0.0230386970456012,0.0262749669301641,0.0449033213718001,0.0396902193711767,0.0296384688893217,-0.0494146399175999,0.0546867594751547,-0.0200849739239094,-0.0198538111483433,-0.0488680979760835,-0.075884632164631,-0.00722373000306051,-0.00118116570076171,colinaspinar,sevilla,urbano,female,NA,,4,
PP1172,-0.043405031179051,-0.0150565119047323,-0.0489039299145111,-0.0917284978184679,-0.0906902109306977,-0.0057954726191806,0.0680703186152931,0.00506397071799918,-0.0111574860639654,-0.0165031625684461,-0.0196526433356763,0.00764343703388562,-0.0345877256914501,-0.0398578783981246,0.0482172005060955,-0.120747246187808,0.0554626688083918,0.0309977697138379,0.00338244474616351,-0.0514627363610126,-0.0220853278740506,-0.0288677324449356,-0.00362385997613682,-0.151999182903931,0.0554914062827063,0.00511790384796459,0.106942756652359,0.0319933480405384,-0.0299367977024807,-0.0924874859312409,0.204621803151314,0.0599906471593597,dehesa,sevilla,,female,NA,2,4,
PP1174,-0.050428799646047,-0.0019522648994099,-0.00186156808162377,0.155149563997926,0.157492267393652,-0.140203103014889,-0.0490184695166827,-0.135977461228122,0.347957200501786,0.0413458395393468,-0.798208011217494,-0.0151825014580848,-0.206690934491938,-0.0130782077943869,-0.0493915474595676,0.0236977104742844,0.141496170216476,-0.0346169048062506,0.0166044473302138,0.0329873841207487,0.0206972949512,0.0548567160707815,0.0531200693053282,-0.0252245709156194,-0.0285274273117961,0.0133437549921266,0.0781243354593983,-0.0241562800392662,0.0246142561196303,-0.00214169783163303,-0.0133763219739437,-0.0690928471492377,dehesa,sevilla,,female,NA,2,4,
PP1205,-0.033668904414911,-0.0123191191012342,-0.047139062643637,-0.0194734539767339,-0.0272230489272967,-0.0074046722960319,0.0188515153478025,-0.013261849414129,0.00591235450466241,0.0044966557126545,-0.0357004527570845,0.00278726453130887,-0.0161118098281956,-0.0133778442582095,0.00951507087267734,-0.0109519127420948,0.00724641176712542,-0.00139613003719141,0.0049929760672763,-0.0131572972297826,0.00423598089472276,-0.000581858532406746,-0.0174093697458038,0.00248087289627872,-0.00772732453330608,0.0367973394810124,-0.0126672326827697,-0.0193961625605895,0.00284194475161145,0.00499514236537679,0.00579769936194902,0.0159639604759401,dehesa,sevilla,,female,1,1,2,1
PP1206,-0.0383794456070391,-0.0415142915023145,-0.0731112883442147,-0.000329803677487679,-0.0133653989534962,0.0294384808475993,-0.0183749225803923,0.00617261303063811,0.0231909167692946,-0.00427595318075944,0.00873714590378512,-0.0139245422462073,0.0104020161107806,-0.0214346052173054,-0.0183046505946558,-0.0191253307353953,-0.0113225582127115,-0.0265181762163061,0.00207378185608468,-0.00374565675352305,0.0206771738653062,0.00663850550821283,-0.0114385182619702,-0.00260502538472004,0.00874181255858715,0.0315750143687696,-0.0175613204001245,-0.0111416035770429,0.0112759164047052,0.0133721042069879,0.0192533600900758,0.00814342512005337,dehesa,sevilla,,female,2,1,2,1
PP1207,-0.0349943047209581,-0.00815991148955936,-0.0272488935845944,-0.0124483094332325,-0.0168349437793712,0.000656562930288879,0.00680934338112975,0.000593134641287421,0.00103778661673266,-0.0011184191129759,-0.00191927156126245,-0.0018694942900134,-0.00485923012475361,-0.00328698048262342,0.00107791751167762,-0.00589161435508201,0.000872299567113538,-0.00307601244590659,-0.000552484071168416,-0.00291890315785896,0.00149168765634094,0.00240229020865413,-0.00367615006513464,-0.00529607626557986,0.0011748232449293,0.00352769705622091,-0.00351530846228144,-2.44430488484774e-08,0.00218232161506401,-0.000335183498627946,0.00159801647629187,0.00255820302454801,dehesa,sevilla,,female,1,3,2,1
PP1208,-0.0790406676430531,0.0617117446651017,0.00239533568808242,-0.0110607685605724,-0.00433673863506768,0.00108695241762326,0.00275016216418156,0.00491630402345352,0.000717690086667658,0.00369953636573159,-0.000484636567493328,-0.00283456318507771,0.000107953776795493,-0.000730060888450237,1.82674628778825e-05,-0.00249048324658895,0.000701808211407775,-4.34019630481225e-05,0.000993166939025194,-0.000390614239776521,0.000253327997342688,0.00147884556631463,-0.00293160704404006,-0.000146105416235082,-0.00149115713239804,0.0044878546688518,-0.00108774776283272,0.000167297947754839,0.00255993449060124,0.00125865139199278,0.000200242167734539,0.00108653895273194,dehesa,sevilla,,female,1,2,2,1
PP1219,0.220469859551011,0.148308614696163,-0.0961773315157097,0.0356920131817667,-0.00237879969559857,0.0103178362952902,0.0127001238291655,-0.00240502226724647,-0.001047786849596,0.00233164789880059,-0.0104947426180902,0.00564871483027905,0.016134270980703,0.00557401881621906,-0.0010270878691786,-0.0107661140892759,0.00727166545794815,0.00119846500930481,-0.00438838921787011,0.00573029801034201,0.00598117751320224,-0.00602270580948829,0.000298839490990129,0.00695219032413279,-0.00390516809815445,-0.0062628093569642,0.00588193595989141,0.00227581862938796,-0.00456778900635364,-0.00488151291654898,0.0087473284681513,-0.00577861247150453,puebla,sevilla,,female,NA,,4,
PP1221,0.239566627987424,0.169080007431303,-0.114565660006931,0.0495061374478506,-0.00348042384417044,0.0145817708660147,0.0145211628559294,-0.0021857047812535,-0.00395806524666197,-0.000837580796325997,-0.00577175184618278,0.00669232215137668,0.0158902388391837,0.00172708012017478,-0.00233465893106823,-0.0109596721710802,0.00356694263834422,0.00599995367578226,-0.00611004667309569,0.00627255663219469,0.00427852414025718,-0.00482910454259198,0.00493915303425247,0.00769213464984217,-0.00260463625415511,-0.0094631951788886,0.00403622758726442,0.00529523573331207,-0.00437783805900558,-0.00880245971956307,0.0154416894824606,-0.00450331990300803,puebla,sevilla,,female,NA,,4,
PP1232,-0.0136168000738545,-0.0121048057140377,-0.00248553644991007,0.0106905001214287,0.00928776216990057,0.00674821228465781,0.000136646027742288,0.00147576227559421,8.63184780392649e-05,-0.00146645632453806,0.000823255942084058,0.0010037491947815,0.000352500356656641,-0.00212030058476409,-0.00367235500309142,-0.000382362471103174,-0.00415678049543325,-0.000936659660422517,-0.00100802070136086,-0.00515347175932962,-0.000110598322454952,0.000530983853641545,0.00195200735138925,-0.00164121415279605,0.00140206527369142,0.00286391736874198,0.000808765832107645,-0.000859658184622233,-0.00046659766773254,-0.00149270927716661,-0.000817922998976633,0.00124783552141553,palomares,sevilla,natural,female,2,2,NA,1
PP1233,-0.00377835156225204,-0.0237141478575487,-0.0146844296905887,-0.00247664328023439,-0.00192714237449381,0.00826283453919313,-0.00274418926610397,0.00326994002699265,-0.000171601139860971,-0.0027757384875726,-0.000253180766295496,0.00183427467200881,-0.00477508927444413,-0.00165402120884672,-0.000210924134130723,0.00275959116387351,0.00134264596197876,-0.000813938192869547,0.00263414754692641,-0.00192937525724343,-0.000281649262062138,-0.00157760269098179,-0.00117158658070099,-0.00393237032088722,-0.000754955350577509,0.00329968663525509,-0.00547783268552733,-0.0046732826190028,0.00596444503536525,0.0019938886906734,-0.00213173648795836,0.001914760993987,palomares,sevilla,urbano,female,2,1,NA,1
PP1234,-0.00877368378366159,-0.0219996751582415,-0.0204952367521526,-0.000913076581623735,-0.00617881742244316,0.0050512354296359,-0.00367346250748386,0.0025018556612667,-0.000114892076316133,-0.00135291998827813,0.000342415777871051,0.000808569603050427,-0.0051650164986496,-0.00308515887331907,-0.00181733812092748,0.000119063278267662,0.000751575264328158,-0.00366331900657321,0.000507103563268549,-0.00295058353373071,-0.000598432850263601,-0.002194461694079,-0.00029736934546027,-0.00293322879308154,0.0010361348998043,0.00473403478317183,-0.00168390777741654,-0.00211485311728299,0.00354668096825751,-0.00184340585830026,0.001877829162288,0.00343451869067806,palomares,sevilla,urbano,female,2,1,NA,1
PP1253,0.0633679069723244,0.0118767531689661,0.00238375029764652,0.0115895698055404,-0.00208955114575058,0.00473494663295265,-0.00196797924156884,0.00265173395521828,-0.00802543114942423,0.000346593732346571,-0.00324451307827995,0.00425556353744572,-8.83890701310139e-05,-0.00288325743668994,-0.00690948674630368,0.00597620544781867,-0.00372823743485292,0.0058300372427685,0.000669129475951042,0.00246278260034785,-0.00455825403745728,0.000734301191817477,0.00300693514018907,0.000410174679499305,-0.000201058319740074,0.000838621948835134,-0.00277224691911357,8.00851855988699e-05,0.000358822747093145,-0.000328687592230433,-0.000904641547470928,0.000637254676374777,hampa,sevilla,urbano,female,2,2,NA,1
PP1254,-0.00460629815102295,-0.0101465232773124,-0.000929278844159538,0.0360388344138328,0.0392713687380998,0.0207311446015903,-0.00746158331286005,0.0111021056368526,0.00329051385755751,-0.00705643995416841,-0.00204564085048385,0.0043474005499381,-0.0141484521861185,0.00237419091022572,-0.016786022006763,0.000658323034328917,0.000701466263629373,0.00589616405200481,-0.0124706206028379,-0.00120404666879289,-0.00436738434650975,0.00893893700975157,0.0138574081001523,-0.0164949325737576,-0.0126887795397066,0.00350198746524114,-0.00333468811332662,0.00829005292866659,-0.00170023337003946,0.00036766208494632,0.0151474879417153,-0.00598450081379224,hampa,sevilla,urbano,female,2,2,NA,1
PP1256,0.109918102213229,0.0275246297976816,0.00233288532212613,0.00838422331506038,0.00578412426035521,0.00650170808717584,-0.00810024579995263,0.0020918330923397,0.00350017488285575,0.000585133188874078,0.00163660266543413,5.10353324498876e-05,-0.0018667744451295,0.00200756224612858,-0.00239155526562375,0.00897335637865136,-0.00300257059450525,1.64405863312841e-05,-0.00112296643946122,0.000121207774591863,0.000147374200392991,0.00339415003148366,0.00158473615765764,-0.00252407651060919,0.00157265620457926,-0.000604765405400134,-0.00552551918432518,0.00335224833910821,0.000261111700705446,-0.0012020210834385,0.0016935044459361,0.00463956153069272,hampa,sevilla,urbano,female,2,2,NA,1
PP1265,-0.0326159212779332,-0.019786119902191,-0.00655396079807073,-0.118789670763486,-0.0709348324302883,-0.0646521201521711,0.0252637196149075,-0.0200751990509802,0.0617440558997643,0.0201727766891381,0.00143125216061378,-0.00169324765687104,0.00553255565239039,-0.0428465505094083,-0.01738027226619,0.00764057791871224,0.0356257725108228,0.00694915869340083,-0.0351651110579894,-0.00793699473668415,-0.0121567187794806,-0.0110179297997231,-0.0361968079399461,-0.034140366127969,0.00827373387371569,-0.0359065115216956,-0.00945586517092168,0.0214206191838972,0.00887604932989432,-0.00684699975344367,0.00664763200989948,-0.0336621619025789,corrales,huelva,urbano,female,1,1,NA,1
PP1266,0.111452330996733,-0.0762223061588381,0.167325937819817,-0.158927349417905,-0.0253960795493749,-0.0157596382709781,-0.025995751424304,-0.00186756542791502,0.0413737300297389,0.0196725620389717,-0.00927780593116978,0.000920737429590975,0.0106663208312002,-0.00653263039509677,0.00835905711153774,-0.00333227904179663,0.00446389837480618,0.00874091694591958,-0.0112206731927677,-0.00569237039103318,0.0140036355091184,0.00135491816571013,0.00528960829470057,0.00298805324553402,0.00844395660528478,-0.016858871593223,0.00617312341216925,0.00527045151662331,-0.00780223903288362,-0.00768528251851218,-0.0143503263929011,-0.00715255049418486,corrales,huelva,natural,female,2,2,NA,1
PP1268,-0.015843609855362,-0.0148573172745232,0.00418108271618218,0.00854911401900556,0.00737932731575763,0.00602233077128606,-0.00224460290429125,0.00210287964878512,0.00296780798466634,-0.000189045773420258,0.00342290165166711,-0.000989625705109945,0.00112315693898514,0.00138332799736377,-0.00083015467802585,0.00149262382592396,-0.00131938748599231,0.00325454383126847,-0.0016160559546011,0.00439540591140933,0.00206586397114381,-0.00200506082050609,0.000400832375668466,0.0001337980403365,-0.000222091202301721,0.00109360333142338,0.000825902594498579,-0.00429806767735969,-0.0033680410254956,0.00153532291254961,0.00229354603237957,-0.00112650394221049,cmutis,huelva,urbano,female,2,2,NA,1
PP1269,-0.0168552425070654,-0.00603984521278378,0.00627550770241657,0.00853688900230995,0.00215453911425151,0.0105870206543189,0.0121639494942574,-0.000287047274205377,0.00380049572019839,0.00079503864484151,0.000858285423717869,0.00178315756212758,-0.003158570396251,0.00121717992819733,0.000827329473501385,-0.00524978195672235,0.00102249246182665,-0.00169774204831417,0.00310367552609954,0.00137459007973272,-0.00211150119408527,-4.14989192232394e-05,-0.000732135802266052,-0.00315122731209665,-0.000343280377499428,0.00338409217970406,-0.00287893096901333,0.00126074099811969,0.000534620786961838,-0.000483689016433583,-0.00204626590361183,0.00150705947054439,cmutis,huelva,urbano,female,1,2,NA,1
PP1270,0.101524705721459,-0.0691211145035335,0.152857853533906,-0.146315509055171,-0.0231999114274934,-0.0199357703547304,-0.0236440575754183,-0.00490584546598408,0.0399623522326183,0.0181411135816437,-0.0108886176962274,-0.000690129209805135,0.00505774661642549,-0.00981826914621538,0.0142055854016468,-0.00504061365517966,0.00335822394078671,0.00830400063667668,-0.00859779041530922,-0.00321652190693955,0.00897031991447056,0.00304327998707185,0.00426306018876998,0.00919052234346673,0.000720968966662112,-0.0142577760580808,0.00422089317273493,0.00379100137090755,-0.00341816386877675,-0.00540451539740083,-0.0165471741273577,-0.00846532106100814,corrales,huelva,urbano,female,2,2,NA,1
PP1284,-0.0260890773727155,-0.00804972273711408,-0.00291720729201251,0.00884768407497079,0.00645880253485455,-0.0101715953025925,-0.000549894504476357,-0.0031386196748773,-0.00371490238712051,-0.00211646110947679,0.00281275365566688,0.000215476874578063,0.00673281614190621,0.0105202234256263,-0.000542274787666226,-0.00367735190444231,0.00032674008325474,-0.00300728062153098,0.00292244622538956,0.00459753165173049,-0.0019822242903922,-0.00319214088375639,-0.00189678145019646,-0.00339380176712918,-0.0019975063287823,-0.00623515157720413,0.000230932737799948,-0.000195482162481123,0.00129119660267907,-0.00505143970946438,-0.00358965407926131,-0.000140769610014479,cmutis,huelva,urbano,female,2,2,NA,1
PP1285,0.122859815944911,-0.100304194514922,0.243581664820066,-0.222706025599628,-0.0274613815065348,-0.0204145467648777,-0.0399371269800432,-0.00619523542752734,0.0601796051923856,0.0276061839779296,-0.0173273462094707,0.00560232773498259,0.0193524280089379,0.000975378833331222,0.0278280084391498,-0.0184931426392264,-0.00302719013525482,0.00176711153714435,-0.00925191040550213,-0.00876724476670064,0.0228699512555101,0.00115478485521909,0.0120781258958292,0.0170136047974489,0.00532910086498606,-0.0185066879078198,0.0160986334187267,-0.00275038146070835,-0.006029568893084,-0.00793404972170993,-0.0251730505080147,-0.0117630004590635,corrales,huelva,,female,NA,,4,
PP1289,0.123359902004304,-0.0878670829988906,0.206528957387048,-0.178957329352804,-0.0252134999990567,-0.0160393558478353,-0.0286211056486723,-0.00616442408795927,0.0504839144766882,0.0238766457570666,-0.0151632277647401,0.00125776893342307,0.000939305979133291,-0.00715796221681621,0.0241900058149724,-0.0140770002555936,-0.0113017929275313,0.000896084554733643,-0.00456831245408231,-0.00498477976789052,0.0151581961211209,0.00148732051943464,0.00768786799467669,0.00653284123983201,-0.00208083911300535,-0.0132630113611073,0.0108169366587573,0.000117574896197488,-0.00914540419741992,-0.00799139328990675,-0.0200618081250019,-0.0135533310376857,corrales,huelva,,female,NA,,4,
PP1290,-0.0285816505653121,-0.0105863432008793,-0.0183136934183688,-0.00900684367361267,-0.0114225737935048,-0.000572133961405784,0.00807188363490567,-0.000300614976005367,0.00425832708802507,0.000232510183986552,0.00266036908771324,0.00170849962845946,-0.00148005185074115,0.000747204536904299,-0.00240742747836237,-0.00761764132917394,0.00169259089434391,0.00377786436684513,-0.000768600886458799,0.000297240110736067,0.00192895932831505,0.00191965047495622,-0.000758395114087398,-0.00274892187334209,0.00315339358206356,-0.000400762425213891,-0.00152693709964971,0.000713179818664761,-0.000250845031618319,0.00125053380949693,0.000441261316732521,2.03195095543614e-05,cmutis,huelva,urbano,female,1,1,NA,1
PP1291,-0.0104540928212587,-0.0441782137125174,0.0468263208818311,-0.143054713014472,-0.0904548086246783,-0.0189247704636029,0.0345743735915756,-0.0117487194061365,0.0492621307870501,0.0141490162525461,-0.0226554628085691,-0.00440880636470577,-0.00161652179326865,-0.0224842401496568,0.0174276269323565,-0.0749083281580383,-0.0225243983866648,0.0172359427496822,-0.00740715912526933,-0.00540429062686553,0.0046252855230436,-0.0171354751112735,-0.0195170783235491,-0.0528512513879037,-0.00431820773110446,-0.0247438811521584,0.000608437318674088,0.0300745984329903,0.0197160084392573,-0.0180790634061587,0.0184977143569895,-0.022755640517062,corrales,huelva,,female,NA,,4,
PP1293,-0.0136885828352032,-0.0228986938995898,-0.0169781744153303,-0.00225912148299218,-0.0035489337281403,0.0106129681623943,-0.0026340549248939,0.00166087989265582,0.00469380165934621,-0.000108885884262062,0.000428366542626148,-2.85936923524382e-05,0.00209732029612926,0.000678457948616,-0.00218990514781046,0.00213699989123939,-0.000954836702718458,-0.00090315292441401,0.000205657465365637,0.00117484813698187,0.00326822331630047,-0.00135307797873396,-0.00406499380510873,-0.000211362294002729,-0.00108712744409672,0.00135939209176874,-0.000346086460646967,-0.00362014725354203,-0.00422410354744449,-0.000945867412950892,0.00179408227252624,-0.000765629131982471,cmutis,huelva,urbano,female,2,1,NA,1
PP1302,0.0365262763044046,-0.0615632986125093,0.123826779445741,-0.0474462252341755,-0.00825816966829268,0.0120868816332413,-0.0117349681843445,0.00792539356550222,0.0471850440239188,0.020579113901663,0.0107311154783269,0.00162627859422702,-0.0144070606462982,0.0101965521581264,-0.000778165382248855,0.0100671247500569,-0.0196314299776058,-0.01601325111102,0.0254675704938979,0.0204876471634975,-0.00503435845915808,-0.00333323761218468,-0.0102717647583397,-0.011108202915145,-0.00821558484253833,-0.00262390540785563,-0.00802252257533643,0.00652179028865905,0.015327926726397,0.00408691461444894,-0.0198332205769396,-0.024875962778823,corrales,huelva,,female,NA,,4,
PP1304,0.128641771602549,-0.0860315164256892,0.21018620575935,-0.179431613119488,-0.0183701639422762,-0.0130944804860391,-0.0347731054260571,-0.00267448033910285,0.0406089551992968,0.0210752747466022,-0.0148573571859641,0.0024755667573617,0.00830435095066329,-0.0103955503563221,0.025605539238869,-0.00898538862990253,-0.00153785223151639,-0.000341819582182608,-0.00403639625393039,-0.00499155129630218,0.0213450103694334,0.00496312839857146,0.0104217096171328,0.00867194770576919,0.00770639756906503,-0.0169128309988342,0.00292133310059919,0.00459387911840185,-0.0147406045171297,-0.00541381093511015,-0.0178201055101493,-0.00965814212036733,corrales,huelva,,female,NA,,4,
PP1308,0.130784301031225,-0.0947092479880078,0.230990269829179,-0.202115193632375,-0.0260787246693362,-0.0176180582804226,-0.0346106890465075,-0.00600599641947479,0.05062998993529,0.0291915108505125,-0.0169811766444905,0.00503710399820487,0.0151484347095525,-0.00660647425425308,0.0272355997118497,-0.0169881002206179,-0.00169312698570273,0.00337725666987879,-0.00893016394533193,-0.00887172477480603,0.0173705692230553,0.00456741122885906,0.00801457370784576,0.0157620546272835,0.00394636280818848,-0.0187867594287534,0.0108433009833345,0.0062301961719822,-0.0154074489177766,-0.0124152510646788,-0.0202947298003216,-0.0190106353615748,corrales,huelva,,female,NA,,4,
PP1312,-0.0171691705371878,-0.083603612360413,-0.106543904341681,-0.024823166205685,-0.0373834737925101,0.116752595058246,-0.0564779063484196,0.0572656292033712,0.100750845295136,0.0142627664418182,0.0507412600009332,-0.0172591518450149,-0.0617599432794523,0.208935715499703,-0.0565122662560933,0.12413268747445,0.263006726692244,-0.126239080757333,0.203645068173889,0.0906295208584991,-0.125085550235904,0.0974420845098311,0.0596579115321672,0.292108668480533,0.0277529859845646,-0.0390389458491797,-0.153402285822882,0.0998191635855876,0.100780332817565,0.0784586067898734,-0.29201133835394,0.0522487529597652,cmutis,huelva,urbano,female,NA,,4,
PP1313,-0.0355327881229218,-0.0670300711031222,-0.180405630203189,-0.12446958937611,-0.0908452752111799,0.00701864564461414,-0.0437564635815238,0.0190338582234417,0.0769603865998468,-0.00144556553119789,0.0451845778957623,-0.0395499975191003,0.0181757434085865,0.0710003519648371,0.0105174351058833,0.0407704330113084,0.15279293564249,-0.0876641921043443,0.0511820539818324,0.0334744000008204,-0.0800745360840169,-0.0166906150841737,-0.0207003242727833,0.0912383191241231,0.134406430073839,-0.0474481889047848,0.081304714904759,0.0164862510352721,0.0743639724179754,0.0327444631504477,-0.00857764382246597,-0.0350248750777236,cmutis,huelva,urbano,female,NA,,4,
PP1314,-0.0364338606152243,-0.0284483170102879,0.020111098750609,0.0656628817786026,0.00595873909417553,0.151807536925033,0.128809689917198,0.0330592702797345,0.0188368515936634,-0.0284537428895456,0.0471100959184965,-0.000808646051480888,-0.0637813111512334,0.0796184204977964,-0.0486553694257085,-0.150699321573207,0.14943387706523,-0.0987925841263353,0.0786050535048542,0.0995701876116587,-0.166470190425592,-0.0247052799931828,0.111272865665881,0.0803384220205255,0.39309384756159,-0.276428325136362,0.321197339256173,-0.0296162867391728,0.119637834193964,-0.0383940833531739,0.302281294995377,0.0914454311442766,cmutis,huelva,urbano,female,NA,,4,
PP1315,-0.0250524828590211,-0.0722265568233422,-0.091472688816718,-0.0197415701966933,-0.0444291544020091,0.123100169879929,-0.0452784310394147,0.0637326382720211,0.0899770624904391,0.00116186250609892,0.0344067566729594,-0.0228824435865517,-0.0850895945207675,0.125726387426507,-0.0109109109493674,0.0290859698756387,0.19260556682904,-0.0594866264968161,0.069699788882562,0.0454116650685303,-0.108818906603118,-0.024619866313962,0.031549062404359,0.054922813084775,0.00976298853368354,-0.0902718537126452,0.107581250105829,0.0199183953810851,0.17843567372374,-0.107408218143728,0.0269354206324888,-0.184143604450741,cmutis,huelva,urbano,female,NA,,4,
PP1343,-0.0248659046145939,-0.0340167583320621,-0.0579504992202616,-0.0669712084383391,-0.0256698286377735,-0.0418041017490756,-0.0296193872032273,-0.00905103919310687,0.0633475654002786,0.0110239849747769,-0.0108601603279788,-0.00799690096586823,0.0121230300823788,0.0339455179821378,-0.023743973361146,-0.00643523743123487,0.0271104747279834,0.0254170465160882,-0.0172711974692253,-0.0170205584431541,-0.0345747436173618,-0.00407830177622633,-0.010169386496384,-0.00528659509112396,-0.00584297765939892,0.00791834888038971,-0.0093182456006106,0.0075446010389759,-0.0150642819327409,0.00768213516756358,-0.00855350520989094,-0.00396895673510879,edarhu,huelva,urbano,female,2,1,NA,1
PP1344,0.0701974671678397,-0.0458738209999526,0.0533830993916243,-0.0469958704075682,-0.0104857917780909,0.00354673070002869,-0.0072676805928338,0.0023217011653599,0.0118428746308624,0.00323409364864223,-0.00486151755583023,0.00118452631836668,0.00123533955623554,0.00294712430147883,0.0024041258612881,-0.00387644405176046,0.00144249485060753,0.00176012367925536,-0.00229198628107103,-0.00115537181036192,-0.000442361793606677,-0.00183685032745801,0.00201569599255402,0.000510643346635312,0.00010354625420179,-0.00249216347896287,-0.00193367881501232,0.00184984739749376,0.00185182250025637,-0.000989012838298186,-0.00214038937833252,0.000990091309720939,edarhu,huelva,natural,female,2,2,NA,1
PP1345,0.0534717024589603,-0.0355224929498323,0.0392632474594657,-0.0370171132536286,0.000237835435704062,-0.00014694838325559,-0.00637608609660044,-0.00297025409661784,0.0128265297812179,0.00181274600806247,-0.00277273431718285,-0.00159099284525383,0.00198361892091292,-0.00141781028055171,0.0047707640244344,-0.00537540181464074,-9.50109509517855e-05,0.00542845874351112,9.3994977712264e-05,0.000129798255781811,-0.00428743853129349,-0.000931859095385881,0.00187240803224512,0.00426184893564113,0.000378396535181117,-0.00286840193561321,-0.0014878374221761,0.00271363441624136,0.000762203617827271,0.00120015648934337,-0.00218427577922417,0.00154695105626256,edarhu,huelva,natural,female,2,2,NA,1
PP1346,-0.0174492097148744,-0.0638176317605246,-0.0534819383540746,-0.0309185051862784,-0.0194478684694552,0.0517170435603355,-0.0119282160606386,0.00880173256336134,0.0627957546121225,0.0147921630489705,0.00877118612760722,-0.000971709741829919,0.0164100999614484,0.0184703305569306,0.013293835706009,0.00106852403149795,0.0187135779809483,-0.004607816796774,-0.0074879197388756,-6.49004428869013e-05,-0.0147531008859167,0.0128197106553057,-0.0055422126295731,0.00773532822872948,0.000941905354058679,-0.00611409592511276,-0.0159082806490757,0.0073474138104508,0.0520471914489872,0.0162488545232155,-0.00158133043083689,0.00256771024554925,edarhu,huelva,natural,female,2,1,NA,1
PP1348,0.0738930370129017,-0.0587094619818558,0.0840089142210438,-0.0745568533259257,-0.00733889299357801,-0.000776199994793742,-0.0182685771222169,0.00124177288342138,0.0228916587760899,0.00676544808928522,-0.0077229811528002,-0.00273616894678274,0.000686912439332389,0.00905656218924985,0.00512357188065094,-0.000509862566318105,0.00761821088676004,0.00519684481132814,-0.00505319812019153,0.000110397827327635,0.000413021216750674,0.00141326014926043,0.00181199621828617,0.00629149031887753,-0.00115495473457078,-0.0102026280701241,-0.00361857498642534,0.00123232957818089,0.00270235901157734,0.000941873705033269,-0.00392224089421511,-0.000282389748527102,edarhu,huelva,urbano,female,2,2,NA,1
PP1351,-0.00541258113847719,-0.0796113235427576,-0.0791252257068724,-0.0677821261687416,-0.0455412609994702,0.037993137358263,-0.030118606374089,0.0134270676356677,0.0476221741424368,0.00549227053745104,0.00315495746127409,-0.0102439119421383,-0.0067009155356214,0.0219102157532279,0.0201913676573449,0.00203442502999506,0.00738289956922745,-0.00450251127529489,-0.0104219714467239,-0.0230834197113139,0.00113519214167601,0.00399886012480468,-0.00810881998343407,-0.00628797677425003,-0.00392362872285233,0.00748045566579677,0.000435078965563231,-0.000838721037017067,0.000540035205220495,0.0137761683874506,0.00735514517089046,-0.00249135660924542,edarhu,huelva,natural,female,2,1,NA,1
PP1352,-0.0125681618675915,-0.0507458231586802,-0.0313634376687579,-0.0525031523413205,-0.0449793581488611,0.051650775234217,0.0321276468340732,-0.00162090428576908,0.0469821954915991,0.0109111758245352,0.00286502326189912,0.00409155984349396,0.0205604588069024,-0.000364285116515567,-0.00745526124615677,-0.0412832792022942,0.0075781818763176,0.0163069812388473,-0.0143757276500135,-0.0241186985840946,-0.0144422011140843,-0.00516118956793889,-0.00955957743019682,-0.025488117142965,0.0063060296303687,0.00468185021325662,-0.00719555828065763,0.00448119948739068,0.0022035346116534,0.00998408029446633,0.00377490097938987,0.00615478890303229,edarhu,huelva,natural,female,1,1,NA,1
PP1353,0.0506679444105883,-0.0373984849052924,0.0416308911541261,-0.0386135175823619,-0.00496681244321756,0.000750636390092227,-0.00779371743356201,-6.04774596443671e-05,0.0151644887106336,0.00425347502361583,-0.00124254804292214,-0.000560350508904251,0.00125378109872857,0.00552134558092135,0.00212448678145267,-0.0020124816768469,0.00369086618478412,0.00380063106160939,-0.00193055614947116,0.000151266770192841,9.40915959340387e-05,-0.00092062630785293,0.000676181311782131,0.000878798533135718,-0.0008774336753651,-0.0033890668526822,0.000526977668773656,-0.000814128565404244,-0.0017005945923348,0.00261006965454187,-0.00101967529133554,0.000117245753036388,edarhu,huelva,urbano,female,2,2,NA,1
PP1357,0.0996392107618806,-0.0802731304981315,0.144140718442151,-0.131118118008739,-0.0147767137019898,-0.00989454162686448,-0.0132053061721671,-0.00618982311015939,0.0250496648804203,0.00569124333769421,-0.0123511928135107,0.00231098008016482,0.00565475958857356,0.0055630712347332,0.0188801549963061,-0.0291281342082816,0.000603930302122586,0.014361397779928,-0.00171652052453022,-0.0117495105865711,0.00938690873640492,-0.00521590531423593,0.00806041091828672,-0.0177663153887543,0.0120385012556975,-0.0171327306762633,0.0193109204657896,0.00808232037979763,-0.0203191897255843,-0.0153584945950768,0.03126262241976,0.0098489376384695,edarhu,huelva,urbano,female,NA,,4,
PP1398,0.0173938338231405,-0.0401553863746672,0.0459169413040716,-0.0109655625912387,0.0292470613643075,0.0066195465025642,0.00591613629758764,-0.00890010704472202,0.00305358232203608,-0.00149170577234947,-0.00384624476150854,0.00190919920861484,0.00302171013249451,-0.0155695297064605,0.012996303146819,-0.0315531747227413,0.00367874842103489,-0.00850406020735654,-0.00132291820941395,-0.0197004883201592,0.00855132937651778,0.0100799184234466,0.0124945038867481,-0.00120582458754233,0.0114730131320709,0.0178646701914843,-0.00651133333652987,0.0102453434728282,-0.00650638659537985,0.0029506612363027,0.0087707449630299,0.00489614446338735,alamos,huelva,urbano,female,2,2,NA,1
PP1399,0.0413949208205785,-0.0267000899406332,0.0390774149197352,-0.0261876931301442,0.00402973088310452,0.00262090514763104,0.000425532714936012,-0.00110341804408918,0.00863033055256433,0.00200054323882534,0.000795590647550726,-0.000679185603143548,0.00170506755870046,-0.000506008415468233,-0.00188109974113869,-0.00630742953392738,6.7888540739351e-05,-0.00168372611726782,-0.00118440213070122,-3.57636736450773e-05,0.00180642203045473,0.0026210081217771,0.00580112487165232,0.00257429306650673,-0.00103156475183495,0.000239557681758206,0.00427487997040361,-0.000722720334579219,-0.00134874355648076,-0.00250034529587858,0.00235366881106466,0.00034542692297941,alamos,huelva,urbano,female,2,2,NA,1
PP1400,0.0221513004330075,-0.0226506307350701,0.0549925639664897,-0.0344709996442378,0.017322716296755,-0.0212098775274076,-0.0034913697122485,-0.0097935389097612,0.0250999215995595,0.00358467850980541,0.0104686323214265,-0.00629328332371105,0.00493053014942339,-0.00626124961636995,-0.00124943308266671,-0.0196692665299413,0.00351233781445665,-0.00478936317113419,-0.00288614333081883,-0.00329956654243608,-0.011613430653593,-0.00532000161211513,0.00255773843819623,0.00174201879148068,0.000579682406906427,-3.47875965798043e-05,0.00804390153919593,-0.000160491050968159,-0.00638848533390992,0.00214831366578544,0.0157982665628789,-0.00485754208455341,alamos,huelva,urbano,female,2,2,NA,1
PP1401,-0.0246739414754805,-0.0159066879891942,-0.0111248424103355,-0.00392180924814556,-0.00403917826047172,0.0165666852689429,0.0155762929697859,0.00194680834611156,-0.0021050869827696,-0.00200956724448238,1.232132343051e-05,0.00018633358640759,-0.00218215769082274,-0.00300414136494297,0.000646343173027576,-0.00712697890394964,0.00111028798686877,-0.00589489795157236,-0.000170248577011198,-0.00325886021426449,-0.00119068133321723,0.0027988236175124,0.000174407469149173,-0.0028669573506425,-0.00248070653465711,0.000276074995787462,0.00108877655354081,-0.000641434244666396,-0.00171385523295515,0.000541751833315368,0.00433955951164971,-0.000535798633856737,alamos,huelva,urbano,female,1,1,NA,1
PP1406,-0.0366230620400319,-0.00735196247613743,0.022146264267908,0.0282596144811848,0.0313109063317348,0.0554102368895868,0.0582909767894868,0.000732448657061008,-0.0109671376409551,-0.00835160538399865,0.0248958358635147,0.00368339131653406,-0.00650427532658309,-0.0154414122007283,0.00311464615349355,-0.0343111463521052,0.0350017685757912,-0.00756835485733943,-0.0116998266825106,-0.0148566744371316,-0.0015266461177666,0.0338095960836775,0.0322431452170387,-0.00188103158018047,0.00274300608506656,0.0174737780650009,0.0206459903668133,0.0057244885915339,-0.00818375517704158,-0.00500981999059661,0.0231347651821909,0.0141497680196772,alamos,huelva,urbano,female,1,2,NA,1
PP1407,0.0175032878060905,-0.0200481066396379,0.0235016834666718,-0.00199264348224555,0.00628182909195567,0.00806908058215073,0.00170935378607295,0.00145687089980506,0.00540466847594122,0.00143244972851534,-0.000289210444988402,0.00150418044267821,-0.000866547442241854,0.000198621515932858,-0.0026162924929301,-0.00427848532315309,0.00188888823644267,-0.000900183645158646,0.00710140137940439,0.00653052227641599,-0.0066909846645096,-0.0029372869993848,0.00272294593357945,0.0013104244607791,-0.00452070803858756,-0.0019942944556486,-9.58414988568797e-05,-0.000187742805932627,-0.000737077186778689,-0.00104389554169276,-0.00181429888498095,-5.36370147531433e-05,alamos,huelva,urbano,female,2,2,NA,1
PP1408,-0.0215410829727539,-0.0179670606513978,-0.0101299128030272,-0.00382286729209329,-0.00456716953138359,0.0138161511168888,0.0129593426783654,-0.000785086225024891,0.00259020285974078,4.44043545347726e-05,-0.00100697358149197,-0.000379851392972023,-0.000576552325650958,-0.00356403022397441,-0.00169157359436542,-0.0082539361403966,0.0029169816551103,-0.00394364116613756,0.000594865472374591,-0.0021395649975005,-0.00102678167278667,0.00153139625441401,0.00200701725994722,-0.00344345550862774,0.00117591955841633,0.00198118710774096,0.00156824329286827,0.000988932594205502,-0.00459977665677566,-0.00195299688774682,0.00342941202875943,0.00378946767680184,alamos,huelva,urbano,female,1,1,NA,1
PP1410,-0.0396517673814899,-0.00828769154763234,0.031989069711891,0.065421762540355,0.0289461958196361,0.1305695276498,0.136529157832407,0.0273234767476838,0.0676542517477218,0.0473722399845889,0.041738817516141,0.0392177926076392,-0.00701573300075552,0.10892328218471,-0.113011839135956,-0.303264787060673,0.257720324998582,0.22046422231116,0.00366775481104,-0.0974937569328097,-0.314117478374827,0.0148277225211893,0.16994892584207,-0.165597434176063,-0.406337938482331,0.0592020842752668,-0.323720852842045,0.217494545233406,-0.0874568916887119,-0.0491868194660052,0.123713409731106,0.0170870824566204,alamos,huelva,urbano,female,NA,,4,
PP1411,0.118989433095015,-0.0778248890651064,0.160161814781596,-0.109561350444241,-0.0203278585375706,0.00735611857531096,-0.0220157816261863,0.00539132358918876,0.0212921366760415,0.0150744225494303,-0.0180401763074756,0.00881301517485002,0.00858896571865354,0.0120437358967297,-0.0028382684451165,-0.0222497912919006,0.0237836657368489,0.0171459784348637,0.00125490716663692,-0.00391474639127444,-0.0234665751364647,0.00694516332465691,0.0209671588289312,-0.0145307451616389,-0.0410581504729113,-0.00119761040333479,-0.0151970615826742,0.0044335323144849,0.00935585494250931,-0.00905581989701194,-0.00989673546024891,0.000298537231880798,alamos,huelva,urbano,female,NA,,4,
PP1447,-0.00541673771003362,-0.0298108750015616,0.0169672141027327,0.0568493547368839,0.0617852904677547,0.0371985759789484,-0.0272825463035857,-0.00440353528290618,0.0341380228899975,0.0106508004799807,0.0660141612231465,-0.00178161316003524,0.0755511126933046,-0.0430113061415753,-0.0263926580153357,-0.0277747436513538,-0.0573144590550955,0.0115676448403534,-0.0496214677710679,-0.0692597158305165,-0.0770229300899161,0.077982531904434,0.107359055292587,-0.00486975060356476,0.0355044369978607,0.00981714764252265,0.101941476845547,-0.0454209784357038,0.00662669218884228,0.00297724108558964,-0.114222153072838,-0.0193713824692752,hampa,sevilla,urbano,female,NA,,4,
PP1452,0.0730313449911831,0.035194678265659,0.00267518963920691,0.00875644399712927,-0.00274384507055283,0.00742481001848879,0.0113456420861006,-0.00488357435581732,-0.0039615584746412,-0.00572335826466259,0.00099529058297155,0.0036638287229164,-0.00176200328993561,-0.00857379352348665,-0.00347260409060861,-0.00293100997795525,0.000100795456347815,-0.00502157912597944,0.00129331871278124,0.00137681045510622,-0.00815382877024217,0.0037329815854645,-0.00504591098994714,-0.00618438666224358,0.00512834288208584,-0.00243808622138547,-0.00442177770510935,0.0031619892903739,0.00380294838346297,-0.00519685076796743,-0.00267290138484172,0.00383345306184047,canada,sevilla,,male,3,2,NA,10
PP1453,-0.13666835981185,0.240931731411912,0.0639955120566,-0.0968398245883827,-0.00784132881709785,0.0271724501957595,-0.0697210505294842,0.109831336291088,-0.0215327328129714,0.0773413573593713,-0.0379844483149087,0.261283854237752,-0.0334893465500475,-0.104824738202692,0.0903186638009358,-0.0772050891927813,-0.0288300982704805,-0.218289491670124,-0.288228273381668,0.357809726915354,-0.188641404959933,0.45029920893727,-0.263661807260682,-0.0387344303482313,0.00801169970428185,-0.00235861683428661,-0.112285345025817,-0.0728423455235664,-0.177929461811928,-0.0601047557510792,0.0929747896858883,-0.179604268156974,medina,cadiz,,female,NA,,4,
PP1456,-0.0546206972719957,0.0152721566392743,0.0237860993865505,0.0681742832610007,0.0622245505435217,-0.00227224735969381,0.137980089009706,-0.0113393785097534,0.0670585559399431,0.00150828347935458,0.0401943786121393,0.0178642280077374,0.0334973517588676,0.0574515570110617,-0.0132377489768383,-0.17578465405301,0.120072941765851,-0.226869972848392,-0.238724036179283,-0.42729205023073,0.0442280963965504,-0.187316401108778,-0.494818593083639,0.152451970154934,-0.213009333521801,-0.0992717500005711,0.173723867894954,-0.0948661319449012,0.0422423014395629,0.0600269485644114,-0.162009773188444,-0.0764702726167921,almensilla,sevilla,,female,NA,,4,
PP1458,-0.016683874542784,-0.0733395744309694,-0.129840742597923,-0.0898926399852177,-0.0878912088711892,-0.0481473282435349,-0.0186055155353691,0.00150960892782006,-0.0456619659983895,-0.0141402987171337,-0.0193152574207036,-0.00500797734049425,-0.00955358482078142,-0.0548621133491077,0.0176879829604917,0.0934641638045701,0.0162044233197165,0.0668283607763896,-0.0711219039060104,-0.0140950056790252,0.0166406071500824,-0.0222435907472743,-0.0721961432002295,0.00696386154910874,0.0752895888265531,-0.0868614483017989,-0.00336457969505772,0.0406323357634214,0.0158991101974402,0.0199535622939979,0.0162221850916776,0.00747524934852838,pgenil,cordoba,,female,NA,,4,
PP1465,0.148384236898289,0.0597920159795721,-0.026964002811379,0.019057688535906,0.00431766613897078,0.000420381499599359,-0.00413590335676558,-0.00191784172217567,0.0110260650870619,0.00321863004900387,0.00704013183444377,-0.00135411221207537,0.00991473733386244,-0.00416754799995525,-0.00698275307426519,-0.00488715791901337,-0.0165100731876818,0.0120020611281057,-0.0145190602398122,-0.0163904519642179,-0.0249254708377915,0.0132882824673645,0.0191111812383325,-0.0112580354801151,0.0126080110603111,0.0100930258022073,0.0227492204691792,-0.013039325511317,-0.00477580049220729,0.0063534287152882,-0.0398021760041024,0.00936974710786628,hampa,sevilla,urbano,female,NA,,4,
PP1480,-0.0192691814559956,-0.0184665488636518,0.022879958813933,0.0157046578128079,0.0632887384252422,-0.100059746707592,0.0327576121374406,-0.0211993990249811,-0.120614912558136,-0.040409802604987,-0.0486656390863344,0.0152432438074273,0.00858016038791429,0.00530262314267556,0.0129269604110139,0.0179538240112614,-0.0229572132269442,0.0542218295393884,0.0123235762556314,-0.0345366482518911,-0.0183387987616384,-0.0219348757931574,0.0313202503756062,0.0468419318196185,0.0803864661906278,0.0339413083162243,-0.0173579297374299,0.0534110901014837,-0.143395870660496,0.0281633721505848,-0.000126866849220306,0.012908584498954,campillos,malaga,natural,female,NA,,4,
PP1487,-0.0125034722287641,-0.0175573699078316,0.0372189782372287,0.0127325986529991,0.0594323002064949,-0.102748193675247,0.0191595252523702,-0.0260051323000663,-0.142839313732114,-0.0400383935781799,-0.0348555529511695,0.00924844748457855,0.00966842243815941,-0.0207178310428849,0.0576520759717107,-0.0176366128806527,0.0114010900234876,0.0685449709080578,-0.00031730036180787,-0.00704472859778704,-0.0472982634472047,-0.0215521901503004,0.0267045360582222,0.0396303423426931,0.0513242432976667,0.0241991285795249,-0.0115911866698139,0.00934988142241333,-0.0513673009358002,0.0710543311632079,0.022726218938318,-0.00551232325286639,campillos,malaga,natural,female,NA,,4,
PP1490,-0.0232109610800912,-0.0888602451499696,-0.164605902771755,-0.081726683870459,-0.105477817798888,0.0677548016195499,-0.0652128413234281,0.0952254980590509,-0.0903263114911138,0.00312144876925564,-0.0488426651936563,0.0642603133418249,-0.0482026591257713,-0.0614631841828532,0.0207375010994325,0.0933589348073467,0.000535493796658021,-0.0496701908473834,-0.0322349664406076,-0.0820967296914287,0.0619967078818462,0.046772941878922,-0.0232095202530972,0.0211425075184716,0.0159911325280303,0.0485282003686219,-0.0921629384120856,0.0138948465666375,-0.0687677546462265,-0.0182192145459767,-0.03438143315221,0.163955413473586,medina,cadiz,,female,NA,,4,
PP1493,0.0238036251287245,0.0267658749819529,-0.00300744790152771,0.0563574794297196,0.0381933062110799,-0.0810515952740885,-0.0249295762260677,-0.0198037591015415,0.0383536149875029,0.00274799209890989,0.0698754058106756,-0.016762770069526,-0.00211635283845724,-0.0250996497818463,-0.0656971799145041,0.0887446664501008,-0.0243556863002988,-0.00360100153514975,0.0553708068992162,0.0485764986795854,-0.101776057079486,-0.0833504047787522,-0.122844429453109,-0.0218051198172609,0.0861968995259813,0.0465335455466282,-0.101136879072339,0.0302866660874151,0.034769970246126,-0.00884357063409976,-0.0681411893090936,0.00181519449581762,canada,sevilla,,female,NA,,4,
PP1495,-0.0387374775442478,0.0230507299972341,0.0622392721231275,0.0252434471847104,0.0261397056146223,0.151942385555517,0.173154951947689,-0.0207691697386155,-0.0237518191080828,-0.04930009589699,0.0205134214249105,0.0420096522881983,0.00246564568901334,-0.0295283975326956,-0.0543596798872932,-0.129689496950485,0.0439198898734018,-0.0558646813963059,-0.0291693588386285,0.0377195610168751,-0.0248605613327158,0.0809274884718763,0.0328822953169434,-0.0231565611040368,0.0366928301252778,-0.0588962023109621,0.137887647312103,0.0345454472259094,-0.0895268994302048,-0.0488807179236543,0.179296417185729,-0.0616978662311784,granjaescuela,huelva,urbano,male,3,2,1,10
PP1506,0.0060729081145345,-0.0207181016103895,-0.054666204898114,-0.0584430600079986,-0.0202540434074733,-0.147622211809566,-0.064762126970827,-0.036428579129788,0.0336208152102644,0.00240580218583842,0.0423254211562145,-0.0282001114320575,0.00589994176922668,-0.071304131587994,-0.0833399284317077,-2.53656289561088e-05,0.0204934348620366,-0.000867233974604988,0.0407591238839515,-0.0347601353346758,-0.103246385336801,-0.0271232475425431,-0.0629971947408974,-0.0371534244325847,0.0642607993146841,0.0629295329964038,-0.0803065233874007,0.0291253581128179,0.0439119507295825,-0.0258361785399683,-0.0397101752518784,-0.0411201158993324,canada,sevilla,,female,NA,,4,
PP1519,-0.0359328268424016,-0.044248400717093,-0.0929096520257605,-0.0406762284169308,-0.032935307679455,0.0207152226155458,-0.0582876321696335,0.000476587736218674,0.0480066744223958,-0.00166787586268569,-0.0433535201790202,-0.0260680662695211,0.0345680356156867,0.0127800885269239,0.00150965466276686,-0.115104405941653,-0.171587008615968,0.0538377107128796,-0.0922823402048082,0.0892531375929444,0.0648838464011764,-0.0820265866198654,-0.0495139569478333,0.105900136781918,-0.0152546375355828,0.0322440800858507,-0.0378863559801839,-0.027931469446274,0.0745555650533086,-0.109047367868673,0.024930127926192,-0.0084880560728528,edarmo,huelva,urbano,female,NA,,4,
PP1526,0.015802677055655,-0.0114702536867248,0.008411737012946,0.0116081844817262,0.00574639918408888,0.0037396677649218,-0.00196574644606507,0.00129573745571508,-0.00110876098038382,-0.00204302012717732,0.000170074475235999,0.000153979574522468,-0.00392655929837799,-0.00028558051174471,-0.000345632267246451,0.00447747364654601,-0.000412122683936387,-0.00253245429317419,0.00278503634013455,0.0013014394034875,-0.0025337305931232,0.000681352863171188,0.00152453813358084,-0.00156535574713674,0.00356199594982319,0.00340328175170099,-0.00349759168708482,0.000726016414665949,0.00538200703929957,-0.0032572278362564,-0.00345763170248874,0.00312795244189777,palomares,sevilla,urbano,female,2,2,NA,1
PP1533,-0.130522641742527,0.202792095851274,0.0224555618390092,-0.0675785834883953,0.0530415398500755,-0.0441578047619385,-0.204687428729606,0.192332254700622,0.00903699845092244,0.211959131096043,-0.0120089144696447,0.301415667406169,0.0575003521837086,0.0736906068662141,-0.194413899572069,-0.106302345350529,-0.0428958273303462,0.282375929033004,0.479672810687834,-0.349985638700117,0.18368351941624,0.110629151276682,-0.0574193097468379,0.039533130496423,0.0527274735537732,-0.156926840793363,-0.0102014263574502,-0.146688413804731,-0.0487423113161705,-0.0367744978104481,0.125810132072095,-0.140750970265775,medina,cadiz,,female,NA,,4,
PP1544,0.0933821603155894,-0.0223885775943905,0.0720579419248293,0.0148829810865869,0.006861611961563,-0.00307147151284708,-0.013015498075439,0.0076061775104749,0.00781633819127845,0.00370549353660838,0.019674542125336,-0.00612184562847532,-0.0114289661634932,0.00135187761987474,-0.0276271032993097,0.0554753005018893,-0.0264241972739758,-0.031904648462583,0.0476230154652137,0.0207562309470726,-0.0499883976615629,0.00331962942591349,-0.00370345737734155,-0.00622318077672504,-0.0303001119271155,0.0278984903660536,-0.00630165981451308,-0.0496414845893886,0.0528142840793627,0.0440483924838557,-0.00643594598645926,0.0160406502375877,bollullos,sevilla,,female,NA,,4,
PP1547,-0.0464826794491384,-0.0060076053428406,0.0307166178200762,0.0747081713179953,0.0941919197039252,-0.022630233734258,-0.0265199615065331,-0.0172765500989321,0.0335225482854702,-0.00226163313072364,0.0432429091825415,-0.016305132270439,0.0567251741716053,0.00995045815138017,-0.0501324563126028,0.082251301174091,-0.133917851228054,-0.120036573626091,0.0948143921779874,0.0645241033702517,-0.214098882055214,-0.00962884977275955,0.000876121169292843,0.00854088942809851,-0.158723078161007,0.135781834940805,-0.0116096035279701,-0.14609253840792,0.105732679354999,0.270841620050239,0.0620777235490892,-0.0577654797669861,bollullos,sevilla,,female,NA,,4,
PP1549,-0.0424689025234438,0.00770466486410774,-0.0245504814084458,0.0461830191365386,0.0930546996951929,-0.05639046749995,-0.0455730463097427,-0.0192384470854437,0.0367604065160327,0.0107277581768875,0.0580376783590336,-0.0230578841845001,0.0676626579452953,-0.0164201006216156,-0.0470825087506761,-0.0705582021306622,-0.0263717910702799,0.0636055715191683,-0.076816715154912,-0.0780281530688238,-0.108901458853268,0.0604098648970101,0.106241396840357,-0.0656391319308663,0.0343741259513314,0.0447266329371754,0.175452004094356,-0.063018747157049,-0.058817913916461,0.00842329738838061,-0.164353177204774,-0.00309487855960891,hampa,sevilla,urbano,female,NA,,4,
PP1552,-0.0166562369162592,-0.0123472946369521,0.0366978103038581,0.052045207746192,0.0785880696269523,-0.124171703149654,0.00931000258201408,-0.03937657336172,-0.16020102410407,-0.0634173680477909,-0.150684131041725,0.0224614716442797,-0.0370346584186645,-0.0238277248990129,0.0586133525094487,-0.0100472496834904,-0.0368508235242089,0.0706785374309228,-0.00779835203743087,-0.039615796505514,-0.0337875896419475,-0.0530015368955051,0.0317222156296799,0.153361670821181,0.100094141748809,0.115221820116227,-0.0563799555011689,-0.0362611337036329,-0.124710466096978,0.16338030986265,0.0190263513692103,0.00200410485697829,campillos,malaga,natural,female,NA,,4,
PP1566,0.0660020161688296,-0.0102216861199461,0.046438730602944,-0.0155374302720986,0.0469130104376301,0.0158868720754034,-0.0332009988647573,0.0123499501685009,0.0129358152341402,0.000455348195759693,0.0258251208812189,-0.0118705955964596,-0.0127889748286222,-0.00436751718336041,-0.0180431360663965,0.0248394471367931,0.00318723281713383,-0.0210374596363211,-0.00973662678879826,0.00385747249183927,0.0141509758236441,-0.00690892123285654,0.00448021645809208,0.0173348475159355,-0.00634360014796025,0.00214668169906961,0.00668092200499255,-0.00451956055593309,0.0149098744440163,-0.0314386879874013,0.0253399993159467,-0.0311944186621331,canada,sevilla,,female,NA,,4,
PP1575,-0.0342828007394082,-0.0207597767144623,0.0161373155331547,0.0677552315095066,0.0686450083552592,0.104879416856825,0.103135064029103,-0.00855188028184151,0.0359718326104828,-0.00291404288080447,-0.107769349798969,0.0040344002147549,0.000367663459852557,-0.0227640203907192,0.0157748765376954,-0.163873529415187,-0.154139389203401,-0.030275365145877,0.00517557365689173,0.0062160324898965,0.109834530621043,-0.0527402730294436,-0.0292622048751631,0.139442773606539,-0.000914688305778294,0.0688940045920367,-0.0517265100914963,0.00588889619670057,0.0431359427361557,-0.0655716948370969,0.0302593006568194,0.0924366066443122,edarmo,huelva,urbano,female,NA,,4,
PP1578,-0.011921575079365,-0.0507737091989669,0.0235423601440074,0.0541446045005057,0.0898217608669094,0.0122881115621533,-0.027013048681702,0.037806248478876,-0.152909034826325,-0.0562559099861505,0.00574630481282091,-0.00310760216381062,-0.0156201124544617,-0.0578683142088888,-0.0608237726084513,0.152697645850663,-0.0309050656728427,0.051309226863602,-0.079692761808014,-0.0570193141035854,0.0421076149404867,0.0582024458771661,0.135077896685068,0.145083679143998,-0.0406964531586933,-0.137237330623162,0.0168317874486406,0.0471414833020102,-0.0739977041636084,-0.00649812600278015,0.0236544529212561,-0.0702136899588041,pgenil,cordoba,,female,NA,,4,
PP1582,-0.0429967878568995,-0.00197680971687271,-0.0708501011694762,-0.041754883201419,-0.0591553661867483,-0.0391350235662738,0.0363591551673411,-0.00813773597756085,0.0231029340363914,-0.00391391912320815,0.0333390648406428,-0.0335856896030051,-0.100199370256724,-0.0652162865316281,0.0702108464826806,-0.0490419862869781,0.0251010304080381,-0.00695333340571568,0.0154132079736189,-0.0193078337634573,-0.0219851501765971,0.0159501020097036,-0.0408631525974084,-0.0830778955483211,-0.0352769265725449,0.0466275627289616,-0.0265011417279913,-0.0162190700039141,0.0345796613838913,0.0112743145150279,0.00667267224484416,-0.0185337709191178,almensilla,sevilla,,female,NA,,4,
PP1587,-0.0208616572063661,0.0139813063665951,0.0337849381329733,0.0112619903922718,0.0458901164621362,-0.0423753210078809,0.0134643612127456,0.0580550159673094,-0.0579814502164457,0.0148261506224171,-0.024954966092432,-0.137649798057922,0.0214865586596627,0.0420141744901573,-0.00284985926325902,0.100001485098021,-0.0410777233670298,0.0383312665094806,0.0360550797543796,0.0228006993578229,0.0500752185992954,-0.0102395844626277,-0.0500435258568904,0.0492921160397079,-0.00989061770019524,0.0448105676827023,0.0370134793886057,0.101431554374729,-0.0484603864896754,-0.0233808696653625,-0.0196697106330955,0.0373709056057498,benalup,cadiz,natural,female,NA,,4,
PP1592,-0.0382292704270343,0.0259163063103528,-0.0401962975461904,0.123942996147749,0.15492993203328,-0.13869567572213,-0.101433419885244,-0.0122813044062172,0.250130341813808,-0.00144260153820542,0.311837285372463,-0.183567665148501,-0.532274088213403,-0.0273228505376495,0.483253499764684,-0.149762632589905,-0.0739144628907854,0.104426240757946,0.0866277028267189,-0.0643993952531922,0.0771833322861639,0.11833479742887,0.0241891957505737,0.058007519553652,0.0179490358711589,-0.0483035907477504,-0.0275777276040963,0.0368054651159656,-0.115154109915218,-0.0345116386777442,-0.0153845097707824,-0.00289609578801871,almensilla,sevilla,,female,NA,,4,
PP1606,-0.0331208001175906,0.00448758324331157,-0.0453484297707638,-0.0569239163425667,-0.0509004172315854,-0.00183964680879957,0.0440191157309431,0.00438004181179243,-0.0414899756978882,-0.00373090191038349,-0.00971252777252248,0.00803436535532477,-0.0344432862879266,-0.015738707432669,0.0106280035645041,-0.0251530193942357,0.0173285848690688,0.0119920038034902,-0.00608160602688995,-0.0274728436815437,0.00100858058515501,0.0155537369785669,-0.0268643792123687,0.00374242332739998,0.0261265152618949,0.0321608642287829,0.00193748787100073,0.0166608109731212,0.00650829832625,0.01364379385756,0.0193642874052677,0.0256618691344867,vejer,cadiz,,female,1,1,NA,1
PP1608,-0.040786526708089,0.012966311867376,0.0118059925171861,0.0082612237687698,0.0033180643437686,0.0130257687882831,0.0270813478585708,-0.00758925496719554,-0.00240740487899425,-0.0060562134184281,0.0042147538512983,0.00589037252756601,0.000540852852300666,-0.00587437259854318,-0.00855446002663209,-0.0187895020809815,0.00559872566269978,-0.00110510594630703,-0.00586391637425905,0.00117698603098103,-0.00611001420618071,0.0081541346445451,0.0003180130425724,-0.00486796967145861,0.00675729526875227,-0.00662140850832995,0.00390742413914682,0.00327590181900586,-0.00366349328040525,-0.00506044507552369,0.0131780215218991,-0.00306464663047325,granjaescuela,huelva,urbano,male,3,2,1,10
PP1618,0.0619533138901874,-0.0156959730320114,0.0256729062228166,0.00575647768585562,0.0244595061618116,0.000429654271589803,-0.0135569472563822,-0.000604701921733008,0.01909232001537,0.004724251272991,0.0331923231127103,-0.0149855430808073,-0.0380970411537364,-0.015446406538516,0.0371632524992701,0.0153214130676125,-0.0105710252272666,0.0107882395866973,0.026502335220781,-0.000576797932706794,-0.0215813554362059,0.00781400238537049,-0.00515454841174599,-0.0110245589436056,-0.00554287603372374,0.0188588887655929,-0.0126951379278625,-0.0101727345047427,0.0170136603456791,0.0222844796141657,0.00778578899078621,0.0133258372109603,almensilla,sevilla,,female,NA,,4,
PP1620,-0.0128013428776375,-0.00916210541336497,0.0037560666237617,0.00616458248783297,0.00517187515195223,0.0108589194706573,0.0143887906817148,0.00172435386238807,-0.0168326167774992,-0.00428700845529818,-0.00326936690349412,0.00264103954644194,-0.00707867653253252,-0.00563315409621838,0.00164547397485459,-0.00208667805028073,0.00434042176990859,-0.00400333475189432,0.000214659325326128,-0.00806322696387164,0.00235721653742593,0.00192074613998931,0.000276229225653602,-0.00180726363342812,0.0016926579193561,-3.22006869770172e-06,0.000870593393144495,-0.000147864965096665,-0.00327087505853016,-0.00165259297678943,0.00527850887304204,0.00350478389715576,fpiedra,malaga,,female,1,2,NA,1
PP1629,-0.0090541245927376,-0.0166503136200602,0.0596952776606216,0.144081074439163,-0.177227669923808,-0.0226065231978019,-0.0478605918414297,0.00527927926872297,-0.00829106332011094,0.0322941698317043,-0.00314679818502183,-0.00948785765824717,0.0132558482733299,0.012493902870676,0.00978635390544385,-0.0170180462176424,-0.00426676625147467,-0.000135959087303871,-0.00995230410377616,0.000861664216831623,0.0113416934804122,0.000487028791180181,0.00669325114349381,0.0048726402989436,0.00678305776641707,-0.0039808832095375,0.0052183614589961,0.000502861510044754,-0.00682261849987171,0.0132980398579615,0.00149234364193487,-0.00825515659722373,alamillo,sevilla,urbano,female,2,2,NA,1
PP1636,-0.0274890423894366,-0.0144719047229997,0.0404128455642787,0.0743476794845322,0.0802625356379014,-0.136169184452459,-0.0546657573699654,-0.0148283502205643,-0.140945427685926,-0.0550793012045628,0.0117337454698754,0.00874444118886287,0.0169294372648739,0.140493398630172,-0.0324945470233171,0.00244870595572889,0.115651801851336,0.0214228502307802,-0.0107582137928002,0.183115164090722,0.105585514312363,-0.019349673486444,-0.0710659558206811,-0.166631188136454,-0.104209242426527,-0.109966116982581,0.0207340293211075,-0.0661335968636447,0.0247801129097694,-0.456223917748327,-0.185397144574907,0.425694835262452,fpiedra,malaga,,female,NA,,4,
PP1640,-0.00882300382950119,-0.00360705004438765,0.0109510774009162,0.0047645904053954,0.00491295594086554,0.00833902976181519,0.0141355822148699,0.00352374410558831,-0.0129056932738972,-0.00306535600889767,-0.00104223938605682,0.00164162258278071,-0.00481648728799716,-0.00563852719397618,-0.000158812389051149,-0.00174468019567538,-0.000547296729441912,-0.001339534909583,0.00313116429783682,-0.0047119732423323,1.53315563540763e-05,0.00132140043594163,0.000160000657632092,0.000329702704442203,-0.00051978161359042,0.00215071153827722,0.00160738054617419,-0.00042862154401563,-0.0024531228176601,0.00270650166882455,0.00241225107363725,3.16578854848795e-05,vejer,cadiz,,female,1,2,2,1
PP1653,-0.0413803147261953,-0.0209121938754938,-0.0753182011438048,-0.00554900974519115,-0.00305649273396404,-0.0464074689543231,-0.0373388890874899,-0.0102573050361528,0.0348589471380821,-0.00440324461241391,0.0483864770856638,-0.0345413123529966,-0.0706567614396247,-0.026472431081439,0.0827765877476871,0.010664260884605,-0.0264574077737855,-5.67748361139896e-05,0.00607675848305003,-0.00241752297661153,-0.00790029202112086,-0.00333694430826993,-0.028115819381948,-0.0480977594590159,0.00766831728313313,0.014985463632789,-0.0172200776292241,0.00674801823860063,0.00025988290275347,0.0278661223714311,-0.0108394103404882,-0.0294918406829393,almensilla,sevilla,,female,NA,,4,
PP1654,-0.017492439120294,-0.00877587682944856,0.0209570647665858,0.0281670360706209,0.0294946959013602,-0.113616579044714,-0.0130057789538986,-0.0255988745083162,-0.0778700893620409,-0.0215511754873566,-0.0078131817953296,0.00887322355116462,0.000473954861308673,-0.052256289788985,-0.0338725937881132,0.0993815048560776,-0.0183154066516778,0.0644537227446342,-0.0595062319360387,0.00661775900667219,-0.0758163994175282,-0.0268328611297852,-0.0181591018541157,0.0292920623206864,0.0232918591797457,-0.0959783343496946,-0.0101714440028819,0.0393587633043589,0.0630922783352576,-0.000701867394416447,0.0127282177088086,0.0447611515003928,pgenil,cordoba,,female,NA,,4,
PP1655,-0.0304067269389664,0.00998822140198453,0.0517120060214014,0.0136618811033324,0.0112168889394701,-0.0675046153547517,0.133045017945364,-0.0359293823774684,-0.148674909243457,-0.0397557753820266,-0.0436644761567946,0.0367031399805462,-0.0371210662928601,-0.0637490551885158,0.0332690632472067,-0.052209336114842,0.0299136615125038,0.0330610621601619,0.0147498027027618,-0.0647689432213052,-0.0641099170840368,-0.0145569518801402,0.0128033960459531,0.0387445771608148,0.0913369364627305,0.0199563383372513,-0.0473117430832333,0.0271921890752048,-0.0806300520781326,0.0672524584851802,0.0184430246802462,0.053655151071447,campillos,malaga,natural,female,NA,,4,
PP1656,-0.0051591346536962,-0.064398621989924,-0.107938964016086,-0.0440224024335574,-0.0461369825062873,0.0445323319591431,-0.0166898765548449,0.0241563307252017,-0.00590850590536444,-0.00503896129101264,-0.029458253690536,-0.00380255570010083,-0.00592103317890727,0.0136749665684802,0.0242200840027086,0.0153162096377861,-0.00525136537223609,-0.0154878127382408,-0.00043617356767796,-0.0267890291476321,0.0603855697366691,0.00809811838785486,-0.0201404755503951,-0.0214297163356439,0.0129812825651024,0.0601693220728406,-0.00455267235973803,-0.00429202578152913,-0.0332530739369151,0.0191443576672655,0.00928116203690404,-0.00065245389802301,rinconada,sevilla,urbano,female,2,3,NA,1
PP1661,-0.0147861732648207,-0.0174252230981656,-0.0178438725280537,-0.00965676962873431,-0.00280883440688994,-0.00710405347847212,0.0018653461808043,-0.000949890150235622,-0.0146002058575483,-0.00516516069288091,-0.00473749596474395,0.00100149734280127,0.000153827099500693,0.000868742921600097,-0.000646097221406369,-0.000218621892844857,5.14762728859009e-05,0.000412792244997541,0.00157631023802822,-0.00291816641539423,0.0017950480018217,-0.00104650547022543,-0.0024836301205122,0.00177907474173789,0.00274232780789273,0.00306061094095879,0.000662799916470683,-0.00165183970186851,-0.0102489385021293,0.0015048519126061,-0.00136260426559829,-0.00354315322994043,fpiedra,malaga,,female,2,1,NA,1
PP1664,-0.130364867370621,0.21329962844476,0.0337990422349391,-0.0784257849177242,0.0317374031715013,-0.0198902530695532,-0.142769940190857,0.185600908492658,0.0259043163583091,0.123246792522037,0.0201880807539147,0.217307120324449,-0.035654206881318,-0.0241028277738369,0.159750953816049,0.0266576570037241,0.120850807916955,-0.211699333632455,-0.215159317551152,-0.00105908335201991,0.0174782474029575,-0.588702343181342,0.418046136576007,-0.030679607525314,-0.0524875994948599,0.0936423988031464,0.0269984536937217,0.0661302074478167,-0.0845960178228998,0.031764293738822,0.0202123971822139,-0.0344775146877577,medina,cadiz,,female,NA,,4,
PP1667,-0.0115415128998819,-0.00903229631550483,0.0105785682062575,0.0100695437357453,0.0154572618860782,0.00337155537777227,-0.00322743061940941,0.0031252350307296,-0.00487432989751432,-0.00275559878332149,0.00274212818095357,0.00024696540415546,0.0014803186053404,0.0026704923822654,0.00183705462393691,0.00536937025481147,-0.00304030990952841,-0.00265550509829897,0.00101625391196085,-0.00177964597154706,0.000203633368317863,-0.00034288272448009,0.000910435251085491,0.00367612428611647,-0.000137003151820035,0.0037530254522486,0.000673051184247098,-0.000249224422178056,-0.00204192715592339,-0.00100544870751166,-0.000316186410227536,0.00162273683883965,benalup,cadiz,natural,female,2,2,2,1
PP1668,-0.031530789914993,-0.0693029920194158,-0.0793959148265849,-0.00300193373049741,-0.00822182984302363,0.0945034804192072,0.00301818383852149,-0.00897562538388758,0.0848597540368811,0.00165125341883536,0.00335639677865129,-0.000764800164266344,0.0702990410887562,0.00351069637804997,-0.000741326043239699,-0.120013060143325,-0.180420796863001,-0.00885020417468919,-0.049645681900524,0.0530633057428673,0.0346837214626564,-0.085135376707449,-0.0290945134585566,0.105176834196524,0.0301201955052899,0.0223320121171719,-0.0186651199725212,-0.0123406873687601,0.0323635388944046,-0.0258916694887155,0.0220286946302712,-0.0319827980774746,edarmo,huelva,urbano,female,NA,,4,
PP1670,-0.0531306815315824,-0.0166445530575777,-0.0832916265991457,-0.0439620889675552,-0.0945324977036332,-0.0149626642213933,0.146988329248436,-0.029125549504251,0.112293799680194,0.0619094163886028,0.0282646924753427,0.0599657115229124,-0.00578203752647177,0.076501816886437,0.013976317265688,0.0450888922770735,0.0112785685812426,-0.024180583180756,0.0317587083494377,0.0286636981630574,-0.0392311049905282,-0.0698549601819493,-0.0780549191985443,-0.107329687756455,-0.036933633379302,-0.0490615065522163,0.016420521267225,0.00391209419976817,-0.136920513815946,0.00024831474827044,-0.0151233693808993,-0.00867309289097096,granjaescuela,huelva,urbano,female,NA,,4,
PP1671,-0.0250310372661289,-0.0172564404745015,0.0281903601271168,0.0506305547224006,0.061089373900579,-0.0822294449977998,-0.00705935471577776,-0.0210205925228471,-0.0327891533711973,-0.0131790960416936,0.017888403190162,0.00513937859581477,-0.0124199793739165,-0.0633609361595944,-0.0468799597932447,0.106810283226609,-0.0076732889625804,0.0682631672852593,-0.106560508690906,-0.0549505927092568,-0.0602602787264576,0.00670121474411237,0.0164511314956597,0.0301286661139041,0.0913367020638826,-0.16149596760494,0.0198349651640976,0.0696177066145554,0.0138145265321666,0.0305875617870577,0.0747122524447879,0.0455215420032502,pgenil,cordoba,,female,NA,,4,
PP1679,-0.00904368462217337,-0.0383502221033343,0.0334625733565639,0.0684188931916206,0.0793745534089009,0.0249959402353694,0.00262546990120187,0.0117247728282242,-0.060960509745346,-0.0236468794981525,0.0178642073490928,0.0142260870802442,0.0184549149557405,-0.010107898656064,0.0146177739862762,0.0339772647171281,0.0616310570109197,0.0409515664092702,-0.00475939391012002,0.0406399519067867,0.05652799096018,-0.0244211698150627,0.00829150068160575,0.00375394176318507,-0.0265738803595231,0.0542630134358794,0.0386069139617574,-0.0530370764409056,-0.0649666707586208,-0.0170661229081979,-0.02401101667678,0.0168622694479532,fpiedra,malaga,,female,NA,,4,
PP1685,-0.0226804707243905,-0.00729474383095946,0.0123876011537569,0.0431626200482853,0.0212894220274467,-0.0377584336487518,-0.0251868681324348,0.0130455506619943,-0.0239158674142013,-0.00820949628954082,0.045208939290136,-0.0263686329895582,-0.0954819468387918,0.0134213017962059,0.0599665582110599,0.0527215126224403,-0.0110416067802624,0.0379995080334257,0.00394186125028271,0.0319407275589331,-0.0269941680624188,0.0248097024386619,-0.00126978491134435,-0.105727476669903,-0.0160420458379382,0.0139478620351573,0.0140926069914821,-0.0135093096624693,0.0129060849575493,-0.00208343935647291,-0.021931294572995,-0.0452837922835923,almensilla,sevilla,,female,NA,,4,
PP1686,-0.125228451679166,0.199805980650596,0.0466094815735196,-0.0693779930536806,0.0084019944762238,-0.0190839243671203,-0.01229930649829,0.111565288949367,-0.0254022209764215,0.0824282139165556,-0.0257985234014028,-0.265999739691176,0.0769499685200557,0.0476956577695097,0.00491154936850273,0.056642333469139,-0.0690515580603343,0.10932018806262,0.0587851350518133,0.087237112626519,0.0231566203097361,0.0329304605990157,-0.0617470499133498,-0.0199118505566712,-0.121712483690349,0.159143359571957,0.310077017110271,0.368065785586796,0.064689382431273,0.0449709126335633,0.0446907970065166,-0.0869377238010053,benalup,cadiz,natural,female,NA,,4,
PP1693,0.0631404083219357,0.0233221086957379,0.031116513047139,-0.00246597855341136,0.0313065574263647,-0.0829693840744431,-0.0537414410777176,-0.00392483479085908,0.0471226032583299,0.0118065513392935,0.0451498146252977,-0.0210832301417586,-0.0584610595243214,0.00802981489648483,0.036793935313591,-0.00363455024501853,0.00982461919930962,-0.0055941834839059,-0.00780311027555836,-0.00816802235527709,0.00334162960983159,0.0271895975211071,0.000577654646669926,-0.0173533915965385,-0.0327443947057269,0.0102607631871977,-0.0181878010852843,-0.00721144145200939,0.024602270221658,0.0163705098164308,0.00401429478666384,0.0244772631988991,almensilla,sevilla,,female,NA,,4,
PP1704,-0.0299046609829532,-0.0243501212402064,0.0399064379948951,0.0598649547072017,0.029021894205967,0.130917064473408,0.0432566731827414,-0.0201009839928232,0.028790529654038,-0.0200764403274837,-0.00966761106817777,0.0234947239313651,0.0663927776401739,-0.0397293838790322,-0.012717176361387,-0.160068826971026,-0.217103793609293,-0.00606756139744808,-0.028873394114996,0.137081273622363,0.0221151129874461,-0.0223540514379826,-0.00999464660482514,0.105454937979248,-0.0315273565185669,-0.0526581209212171,-0.0744749643923513,0.0325651027930984,0.0631531822069099,-0.0679426933217846,-0.00646949757482984,0.01069005263598,edarmo,huelva,urbano,female,NA,,4,
PP1705,-0.0163129158572076,-0.0162188728456197,0.0682709943019972,0.0724217588445539,0.0616765204063649,0.131416675738031,0.159846076255411,0.0371127019382331,-0.176482975690282,-0.0419880638562975,-0.0299050525508617,0.0647258979270911,-0.059566607523728,-0.0560454169687713,0.0893373788856081,-0.0468452172495082,0.222109928793156,0.0902225908804268,0.164537116527443,0.212319529240096,0.164182946723711,-0.149745198631063,-0.15445797055481,-0.451714141610829,0.176592683045502,-0.10462640241822,0.0169091498649472,-0.0821614212897566,-0.0214787249870174,0.28414541699707,-0.337616175323629,-0.174368807040173,fpiedra,malaga,,female,NA,,4,
PP1709,-0.0134411700084323,-0.0659910867012013,-0.0709892807221522,0.00351648339998528,0.0172634640742384,0.0123983426816835,-0.0468741731766047,0.0248415743890013,-0.00156613084580756,-0.014810138429676,-0.0197360938292568,-0.00608876058854336,0.0314627433925234,0.0362557498360449,-0.0394049706832019,0.0490800437844052,-0.0256478510169396,-0.119317269731656,-0.0212174735831475,-0.0686358361812502,0.158544869061112,0.0686988262251912,0.0441893504740015,-0.10891877686737,0.0136593522333784,-0.0462483358275823,-0.0295720868026311,0.0465518358700489,-0.0293167564068336,0.0155078279545376,0.0722193786752994,0.0139684032024455,rinconada,sevilla,urbano,female,NA,,4,
PP1710,-0.0171055066979773,0.00205324752580739,0.00638109787437656,0.00367446207313359,0.0100887664969661,-0.0254859420031593,-0.00523620842259179,-0.00474120189979523,-0.0159158058035975,-0.00278264146663419,0.0022631682499319,0.000198245782918922,0.0023033788621266,0.00821043567653953,-0.00194038355912055,0.00153126405723231,-0.00185450282872676,0.00148484821240849,0.00320361977081428,0.0040000312992474,-0.00395966254071141,-0.00228955694689443,2.601443115085e-05,-0.00136109251881146,-0.00129185888348919,-0.00134637008678639,0.00341880302811856,0.0011617035161325,0.00126413535729574,-0.00223983753942917,0.000517539685498282,0.00332951943150432,campillos,malaga,natural,female,2,2,NA,1
PP1713,-0.011830201889752,-0.0206296518995762,0.00820609289991275,0.0235300300869255,0.0274498950552999,-0.00153618597113018,0.00147438557166327,-2.72717666870432e-05,-0.024836883535611,-0.00699904723220109,-0.00160443742377844,-0.000572316479200665,-0.00181681235761549,8.72552826719341e-05,-0.00179617279979775,0.00787404396612748,-0.00226222252451119,0.0090948942448104,0.00901620061838914,0.00457103660253888,0.00545131814987297,0.00247063084328995,0.00250937887413256,0.0139208716055083,-0.00721336436989555,0.00120271622659903,0.00564907829526609,0.00110161099166537,-0.0133110319012341,-0.00335529837499735,-0.000895549006518656,0.0060399801779489,campillos,malaga,natural,female,2,2,NA,1
PP1722,-0.041972630322921,0.0287945062907439,0.0635627928810276,0.0275819275414929,0.000386820770701407,0.0992866565973752,0.0172058028058434,0.084022387976724,-0.0781832331799789,0.0631169916126838,0.0112940397703827,0.136236422805262,-0.0790490803846638,-0.043383189344683,0.00921151373205546,0.0441936835817155,0.0367959783755538,-0.0564736681499173,0.074581616364238,-0.0125081895614509,0.017255763924021,0.0636844888611962,0.012704681328469,0.0329431265039341,-0.0223474814099402,0.0384970415690193,-0.032795483814362,-0.0237063547142887,0.0378122522540075,0.00396705386781748,-0.0856152917292617,0.0668677912805699,medina,cadiz,,female,NA,,4,
PP1723,-0.0246058365625866,-0.0772985391525188,-0.115996754046571,0.00540916194164496,-0.0245980221946137,0.0417062203777143,-0.0533670330821168,0.041652073377495,-0.0151890897702186,-0.0146473706221832,-0.0316315163540406,0.00442329183816161,-0.0806571315025377,0.0353501410256401,-0.0896779483924579,0.133917248307117,0.00105592317206162,0.357956399634254,-0.271544428962399,0.0900438828612243,0.0298673927553414,0.00720316574791625,0.0199210215188707,-0.036940689489557,-0.28881225710259,-0.409260170089178,-0.0450352777418418,-0.0355305312236029,0.149945485199009,0.113841386781387,-0.0196593491995629,-0.0285206701866282,pgenil,cordoba,,female,NA,,4,
